{"learner":{"attributes":{"best_iteration":"99","best_ntree_limit":"100","scikit_learn":"{\"use_label_encoder\": false, \"n_estimators\": 100, \"objective\": \"binary:logistic\", \"max_depth\": 10, \"max_leaves\": null, \"max_bin\": null, \"grow_policy\": null, \"learning_rate\": 0.1, \"verbosity\": 1, \"booster\": null, \"tree_method\": \"gpu_hist\", \"gamma\": null, \"min_child_weight\": null, \"max_delta_step\": null, \"subsample\": null, \"sampling_method\": null, \"colsample_bytree\": null, \"colsample_bylevel\": null, \"colsample_bynode\": null, \"reg_alpha\": null, \"reg_lambda\": null, \"scale_pos_weight\": null, \"base_score\": null, \"missing\": NaN, \"num_parallel_tree\": null, \"random_state\": null, \"n_jobs\": 50, \"monotone_constraints\": null, \"interaction_constraints\": null, \"importance_type\": null, \"gpu_id\": null, \"validate_parameters\": null, \"predictor\": null, \"enable_categorical\": true, \"max_cat_to_onehot\": null, \"eval_metric\": \"logloss\", \"early_stopping_rounds\": null, \"callbacks\": null, \"classes_\": [false, true], \"n_classes_\": 2, \"_estimator_type\": \"classifier\"}"},"feature_names":[],"feature_types":[],"gradient_booster":{"model":{"gbtree_model_param":{"num_parallel_tree":"1","num_trees":"100","size_leaf_vector":"0"},"tree_info":[0,0,0,0,0,0,0,0,0,0,0,0,0,0,0,0,0,0,0,0,0,0,0,0,0,0,0,0,0,0,0,0,0,0,0,0,0,0,0,0,0,0,0,0,0,0,0,0,0,0,0,0,0,0,0,0,0,0,0,0,0,0,0,0,0,0,0,0,0,0,0,0,0,0,0,0,0,0,0,0,0,0,0,0,0,0,0,0,0,0,0,0,0,0,0,0,0,0,0,0],"trees":[{"base_weights":[1.3222191E-2,-6.529179E-1,1.2762064E0,-4.1103935E-1,-1.3633218E0,1.8067485E0,6.4492756E-1,-5.9725586E-2,-1.3433477E0,-1.4296161E0,-1.8181819E-1,1.6320273E-1,1.9389737E-1,5.5128205E-1,1.1395348E0,3.9132914E-1,-1.144033E0,-1.5617198E0,-5.860465E-1,-1.4716982E0,-1.0526316E-1,5E-1,-1.0666667E0,5.948478E-1,9.3023255E-2,1.2207792E0,3.6363637E-1,2.1198156E-1,1.5294118E0,-1.3668189E0,8.4210527E-1,-1.575419E0,2.2222223E-2,-7.594936E-2,-1.8688525E-1,-1.5014955E0,-8.852459E-1,-4E-1,6.666667E-1,-0E0,1.25E-1,2.2222223E-2,-1.36E-1,9.0909094E-1,5.4002714E-1,-2.857143E-1,5.365854E-1,1.2533333E0,-0E0,-6.666667E-2,8.235294E-2,3.848684E-1,-4.7557002E-1,1.1452992E0,1.84E0,-1.3984497E0,2.5E-1,1.5714285E0,-1E0,-1.592068E0,-2.857143E-1,4E-1,-1.0769231E0,-1.5095477E0,-3.3333335E-2,-0E0,-9.818182E-1,-0E0,-8.571429E-2,1E-1,-0E0,6.666667E-1,-8.571429E-2,9.642857E-2,1.5384616E-1,-7.692308E-1,6.096866E-1,-0E0,-4.8275862E-2,2.5E-1,1.07692316E-1,5.6E-1,1.3488373E0,4.9953574E-1,-4.8951048E-1,-5.923345E-1,1E0,1.266055E0,-3.3333335E-2,1.925926E-1,1.0476191E0,-1.2674897E0,-1.7546013E-1,1E-1,-1E-1,1.6666667E-1,6.666667E-1,-1.818182E-2,-1.2941177E-1,-1.4672304E0,-1.814346E-1,-8.0000006E-2,5E-2,-1.1111111E-1,1.2380953E0,-1.2727273E0,-0E0,-1.4654789E0,-1.8415843E-1,-1.0588236E0,-0E0,-4E-1,6.666667E-2,-6.666667E-2,1.3846155E-1,2.2222223E-2,-0E0,-2.2222223E-2,-8.235294E-2,8.4577113E-1,5.108911E-1,-4E-1,4.6153847E-2,-0E0,4.4444446E-2,1.07692316E-1,-0E0,1.3821138E-1,4.0000003E-2,4.1276172E-1,1.5897436E0,-6.363636E-1,9.3333334E-1,-7.68E-1,5.365854E-1,1.3684212E-1,-2.2222223E-2,1.7333333E0,8.8235295E-1,-0E0,1.4666668E-1,-1.38322E0,-1.2244898E-1,-0E0,1E-1,-1.5721925E0,-1.0291262E0,4E-1,-8.3870965E-1,1.5384616E-1,6E-1,-1.4594595E-1,-1.818182E-2,1E-1,-1E-1,-1.4720358E0,-0E0,-1.2E0,-4E-1,-0E0,-6.666667E-2,1.6666667E-1,9.171271E-1,3.3082706E-1,6.995885E-1,-0E0,-5.454546E-2,5.1918733E-1,-3.8016528E-1,1E0,1.7777778E-1,-7.1875E-1,1E-1,1.2727273E-1,-0E0,-9.767442E-1,-5.28E-1,1.25E-1,1.3846155E-1,1.804878E-1,5E-2,5.925926E-1,1.5555556E-1,-1.4087759E0,-0E0,6.666667E-1,-5.1428574E-1,-1.6842106E-1,-1.25E0,-1.1648352E0,-0E0,5.7142857E-2,1.1428572E-1,4.0000003E-2,-1.2E0,-1.818182E-2,1.07692316E-1,-1.2763158E0,-1.5622896E0,-1.3142858E0,-2.2222223E-2,4.0000003E-2,-1.1111112E-1,5.882353E-1,-5.454546E-2,6.666667E-2,9.9236645E-2,4.1951218E-1,3.076923E-2,7.172996E-1,-0E0,1.16279066E-1,4.4776123E-2,-6.8292685E-2,2.3255816E-2,3.529412E-2,1.4666668E-1,-9.1304354E-2,-2.0000001E-2,-1.16483524E-1,-4.761905E-2,-2.727273E-2,-1.0243902E-1,5.454546E-2,-5.714286E-2,-1.818182E-2,7.234042E-2,-1.4605598E-1,-8.1818186E-2,5E-2,-5E-2,-0E0,1.20000005E-1,5.714286E-2,-1.03999995E-1,-4.0000003E-2,-1.3267326E-1,-0E0,-1.21839084E-1,1E-1,-6.666667E-2,2.666667E-2,-6.666667E-2,-1.4285715E-1,-0E0,-1.04663216E-1,-1.6173914E-1,-1.5760684E-1,-4.6153847E-2,-1.6000001E-1,-7.368421E-2,-0E0,9.090909E-2,4.522613E-2,-4.0000003E-2,-2.2222223E-2,1.904762E-2,6.387435E-2,9.6E-2],"categories":[],"categories_nodes":[],"categories_segments":[],"categories_sizes":[],"default_left":[0,0,0,0,0,0,0,0,0,0,0,0,0,0,0,0,0,0,0,0,0,0,0,0,0,0,0,0,0,0,0,0,0,0,0,0,0,0,0,0,0,0,0,0,0,0,0,0,0,0,0,0,0,0,0,0,0,0,0,0,0,0,0,0,0,0,0,0,0,0,0,0,0,0,0,0,0,0,0,0,0,0,0,0,0,0,0,0,0,0,0,0,0,0,0,0,0,0,0,0,0,0,0,0,0,0,0,0,0,0,0,0,0,0,0,0,0,0,0,0,0,0,0,0,0,0,0,0,0,0,0,0,0,0,0,0,0,0,0,0,0,0,0,0,0,0,0,0,0,0,0,0,0,0,0,0,0,0,0,0,0,0,0,0,0,0,0,0,0,0,0,0,0,0,0,0,0,0,0,0,0,0,0,0,0,0,0,0,0,0,0,0,0,0,0,0,0,0,0,0,0,0,0,0,0,0,0,0,0,0,0,0,0,0,0,0,0,0,0,0,0,0,0,0,0,0,0,0,0,0,0,0,0,0,0,0,0,0,0,0,0,0,0,0,0,0,0,0,0,0,0,0,0,0,0,0,0,0,0],"id":0,"left_children":[1,3,5,7,9,11,13,15,17,19,21,-1,-1,23,25,27,29,31,33,35,37,39,41,43,45,47,49,51,53,55,57,59,-1,61,-1,63,65,67,69,71,-1,-1,-1,73,75,77,79,81,-1,-1,-1,83,85,87,89,91,93,95,97,99,101,103,105,107,-1,-1,109,111,-1,-1,-1,113,-1,-1,115,117,119,121,-1,123,-1,125,127,129,131,133,135,137,-1,-1,139,141,-1,-1,-1,-1,143,-1,-1,145,-1,-1,-1,147,149,151,153,155,-1,157,-1,159,-1,-1,-1,-1,-1,-1,-1,161,163,165,-1,-1,-1,-1,-1,-1,-1,167,169,171,173,175,177,-1,-1,179,181,-1,-1,183,185,-1,-1,187,189,191,193,-1,195,-1,-1,-1,-1,197,-1,199,201,-1,-1,203,205,207,209,-1,-1,211,213,215,-1,217,-1,-1,-1,219,221,223,-1,-1,-1,225,-1,227,229,231,233,-1,235,237,239,241,-1,-1,243,-1,-1,245,247,249,-1,-1,-1,251,-1,-1,-1,253,255,257,-1,-1,-1,-1,-1,-1,-1,-1,-1,-1,-1,-1,-1,-1,-1,-1,-1,-1,-1,-1,-1,-1,-1,-1,-1,-1,-1,-1,-1,-1,-1,-1,-1,-1,-1,-1,-1,-1,-1,-1,-1,-1,-1,-1,-1,-1,-1,-1,-1],"loss_changes":[1.4643171E3,1.9524161E2,2.001217E2,2.7881387E2,2.2376587E1,4.3669434E0,1.2155487E1,3.0343396E2,3.761679E1,1.50876465E1,1.0487879E1,0E0,0E0,4.6163254E0,2.2666893E0,8.912804E1,8.1793655E1,4.755127E0,3.502968E1,3.3015747E0,2.42807E0,3.75E0,3.1377773E0,3.187027E0,3.765173E0,1.5300407E0,3.15508E0,4.5323395E1,4.9910583E0,8.749573E0,2.7097746E1,3.3886414E0,0E0,1.9249075E1,0E0,1.8554688E0,1.3037252E0,1.3714285E0,6.666666E-1,4.5714283E0,0E0,0E0,0E0,1.1126385E0,1.7272999E1,6.896552E-1,1.3180113E0,1.7277527E0,0E0,0E0,0E0,3.0724392E1,1.3815908E1,5.6447067E0,1.1004639E-1,5.296997E0,4.75E0,9.523392E-2,1.2085562E0,2.2355957E0,1.8142856E0,1.19174595E1,2.7412586E0,9.4104004E-1,0E0,0E0,1.0395727E0,1.6E0,0E0,0E0,0E0,5.230769E0,0E0,0E0,3.4188032E-2,1.0658598E-1,3.6612854E0,1.2923077E0,0E0,3.888889E-1,0E0,1.8092308E0,4.6541977E-1,2.4815323E1,8.0638685E0,1.4641001E1,3.005848E0,3.3563957E0,0E0,0E0,2.304762E0,1.593129E1,0E0,0E0,0E0,0E0,6.666666E-1,0E0,0E0,3.8196716E0,0E0,0E0,0E0,7.0293903E0,1.0893764E0,1.9754314E0,4E0,2.1572266E0,0E0,7.058821E-1,0E0,3.9999998E-1,0E0,0E0,0E0,0E0,0E0,0E0,0E0,2.2821655E0,4.0582275E0,2.1818179E-1,0E0,0E0,0E0,0E0,0E0,0E0,0E0,2.1357609E1,3.8461685E-1,5.167614E0,1.1878788E0,2.6154442E0,3.4045496E0,0E0,0E0,9.024429E-2,2.3943357E0,0E0,0E0,3.897293E0,4.1306124E0,0E0,0E0,1.2692719E0,3.5962868E0,2.8000004E0,3.9483867E0,0E0,2.06014E0,0E0,0E0,0E0,0E0,1.9540405E0,0E0,8.2539654E-1,2.5777779E0,0E0,0E0,2.1221032E0,1.911354E-1,1.7567015E0,7.527218E-1,0E0,0E0,9.661724E0,5.77047E0,1.5960789E0,0E0,3.0426636E0,0E0,0E0,0E0,2.4816418E0,3.680462E0,2.6542208E0,0E0,0E0,0E0,1.4991045E0,0E0,2.115631E0,1E0,1.5999999E0,5.5885715E0,0E0,1.2955437E0,1.4192257E0,3.3333335E0,1.5047618E0,0E0,0E0,1.7142859E0,0E0,0E0,4.2609787E0,1.5249023E0,2.646618E-1,0E0,0E0,0E0,8.0213904E-1,0E0,0E0,0E0,1.5563669E0,6.989011E-1,5.1644516E-1,0E0,0E0,0E0,0E0,0E0,0E0,0E0,0E0,0E0,0E0,0E0,0E0,0E0,0E0,0E0,0E0,0E0,0E0,0E0,0E0,0E0,0E0,0E0,0E0,0E0,0E0,0E0,0E0,0E0,0E0,0E0,0E0,0E0,0E0,0E0,0E0,0E0,0E0,0E0,0E0,0E0,0E0,0E0,0E0,0E0,0E0,0E0,0E0,0E0],"parents":[2147483647,0,0,1,1,2,2,3,3,4,4,5,5,6,6,7,7,8,8,9,9,10,10,13,13,14,14,15,15,16,16,17,17,18,18,19,19,20,20,21,21,22,22,23,23,24,24,25,25,26,26,27,27,28,28,29,29,30,30,31,31,33,33,35,35,36,36,37,37,38,38,39,39,43,43,44,44,45,45,46,46,47,47,51,51,52,52,53,53,54,54,55,55,56,56,57,57,58,58,59,59,60,60,61,61,62,62,63,63,66,66,67,67,71,71,74,74,75,75,76,76,77,77,79,79,81,81,82,82,83,83,84,84,85,85,86,86,87,87,90,90,91,91,96,96,99,99,103,103,104,104,105,105,106,106,107,107,109,109,111,111,119,119,120,120,121,121,129,129,130,130,131,131,132,132,133,133,134,134,137,137,138,138,141,141,142,142,145,145,146,146,147,147,148,148,150,150,155,155,157,157,158,158,161,161,162,162,163,163,164,164,167,167,168,168,169,169,171,171,175,175,176,176,177,177,181,181,183,183,184,184,185,185,186,186,188,188,189,189,190,190,191,191,194,194,197,197,198,198,199,199,203,203,207,207,208,208,209,209],"right_children":[2,4,6,8,10,12,14,16,18,20,22,-1,-1,24,26,28,30,32,34,36,38,40,42,44,46,48,50,52,54,56,58,60,-1,62,-1,64,66,68,70,72,-1,-1,-1,74,76,78,80,82,-1,-1,-1,84,86,88,90,92,94,96,98,100,102,104,106,108,-1,-1,110,112,-1,-1,-1,114,-1,-1,116,118,120,122,-1,124,-1,126,128,130,132,134,136,138,-1,-1,140,142,-1,-1,-1,-1,144,-1,-1,146,-1,-1,-1,148,150,152,154,156,-1,158,-1,160,-1,-1,-1,-1,-1,-1,-1,162,164,166,-1,-1,-1,-1,-1,-1,-1,168,170,172,174,176,178,-1,-1,180,182,-1,-1,184,186,-1,-1,188,190,192,194,-1,196,-1,-1,-1,-1,198,-1,200,202,-1,-1,204,206,208,210,-1,-1,212,214,216,-1,218,-1,-1,-1,220,222,224,-1,-1,-1,226,-1,228,230,232,234,-1,236,238,240,242,-1,-1,244,-1,-1,246,248,250,-1,-1,-1,252,-1,-1,-1,254,256,258,-1,-1,-1,-1,-1,-1,-1,-1,-1,-1,-1,-1,-1,-1,-1,-1,-1,-1,-1,-1,-1,-1,-1,-1,-1,-1,-1,-1,-1,-1,-1,-1,-1,-1,-1,-1,-1,-1,-1,-1,-1,-1,-1,-1,-1,-1,-1,-1,-1],"split_conditions":[1E0,1.8045478E-1,1E0,9.9288E-2,4.541903E-1,1E0,1E0,3.940345E-2,5.429281E-1,2.459533E0,-9.425376E-2,1.6320273E-1,1.9389737E-1,1.1161603E0,8.4008914E-1,1E0,1.6270185E0,1.12959936E-1,2.3637266E0,1E0,5.710751E0,-2.6910886E-1,2.809471E-1,-1.6445507E0,1.7373202E0,-3.3550575E-1,1.3232136E0,-2.3589115E-1,6.800683E-1,2.8630412E0,1.8889E0,3.632022E0,2.2222223E-2,2.7680933E-1,-1.8688525E-1,2.6345513E0,-6.092841E-1,3.5696474E-1,-2.6520926E-1,1.3878624E0,1.25E-1,2.2222223E-2,-1.36E-1,-3.3550575E-1,-1.2994618E0,1.3922313E0,1E0,-1.7825862E0,-0E0,-6.666667E-2,8.235294E-2,-1.7792767E-1,1.8790764E0,-3.3550575E-1,-8.809562E-2,1.0134658E0,-1.6375285E-1,1.3172057E0,-2.6316294E-1,1.043244E0,-7.6995365E-2,2.248183E0,5.254719E0,4.5624148E-2,-3.3333335E-2,-0E0,2.0133913E0,-2.719603E-1,-8.571429E-2,1E-1,-0E0,7.32194E-1,-8.571429E-2,9.642857E-2,1E0,-1.5755329E0,-6.783019E-1,1.2541958E0,-4.8275862E-2,2.0824091E0,1.07692316E-1,-1.9206218E0,2.343934E-2,1.7153579E0,1E0,1.9914672E-1,-1.859653E-2,-5.4026634E-1,-3.3333335E-2,1.925926E-1,1.7380959E0,1E0,-1.7546013E-1,1E-1,-1E-1,1.6666667E-1,2.248183E0,-1.818182E-2,-1.2941177E-1,8.4008914E-1,-1.814346E-1,-8.0000006E-2,5E-2,9.1216344E-1,9.1216344E-1,-2.3438068E-1,1.7527407E0,3.242812E-2,-1.8415843E-1,-2.355335E-1,-0E0,8.3440477E-1,6.666667E-2,-6.666667E-2,1.3846155E-1,2.2222223E-2,-0E0,-2.2222223E-2,-8.235294E-2,-1.0924085E0,-5.714192E-2,1.185178E0,4.6153847E-2,-0E0,4.4444446E-2,1.07692316E-1,-0E0,1.3821138E-1,4.0000003E-2,-1.0902309E-1,2.3140054E0,4.908024E-1,-6.70263E-2,-2.6253802E-1,8.2899886E-1,1.3684212E-1,-2.2222223E-2,-2.8068492E-1,3.583058E-1,-0E0,1.4666668E-1,2.343934E-2,3.7631032E-1,-0E0,1E-1,-2.4595673E-1,-7.6995365E-2,1.7380959E0,7.32194E-1,1.5384616E-1,-2.8564608E-1,-1.4594595E-1,-1.818182E-2,1E-1,-1E-1,7.2041345E-1,-0E0,-2.5757366E-1,-1.6396262E-1,-0E0,-6.666667E-2,-1.1614263E0,-9.54373E-1,-2.6419523E-1,-2.836365E-1,-0E0,-5.454546E-2,-1.9206218E0,-2.719603E-1,1E0,1.7777778E-1,5.3956133E-1,1E-1,1.2727273E-1,-0E0,7.2477823E-1,-2.5037137E-1,-2.8233862E-1,1.3846155E-1,1.804878E-1,5E-2,-1.261597E-1,1.5555556E-1,1.3232136E0,-2.8399235E-1,8.2899886E-1,-2.7020082E-1,-1.6842106E-1,-6.783019E-1,1.29199E-1,1.2033763E-1,1.3707339E0,1.1428572E-1,4.0000003E-2,-1.0635678E-1,-1.818182E-2,1.07692316E-1,-2.355335E-1,1.9914672E-1,2.8794694E-1,-2.2222223E-2,4.0000003E-2,-1.1111112E-1,-1.2304441E0,-5.454546E-2,6.666667E-2,9.9236645E-2,-2.6520926E-1,-1.9517747E-1,7.020536E-1,-0E0,1.16279066E-1,4.4776123E-2,-6.8292685E-2,2.3255816E-2,3.529412E-2,1.4666668E-1,-9.1304354E-2,-2.0000001E-2,-1.16483524E-1,-4.761905E-2,-2.727273E-2,-1.0243902E-1,5.454546E-2,-5.714286E-2,-1.818182E-2,7.234042E-2,-1.4605598E-1,-8.1818186E-2,5E-2,-5E-2,-0E0,1.20000005E-1,5.714286E-2,-1.03999995E-1,-4.0000003E-2,-1.3267326E-1,-0E0,-1.21839084E-1,1E-1,-6.666667E-2,2.666667E-2,-6.666667E-2,-1.4285715E-1,-0E0,-1.04663216E-1,-1.6173914E-1,-1.5760684E-1,-4.6153847E-2,-1.6000001E-1,-7.368421E-2,-0E0,9.090909E-2,4.522613E-2,-4.0000003E-2,-2.2222223E-2,1.904762E-2,6.387435E-2,9.6E-2],"split_indices":[0,3,8,6,4,9,11,7,4,5,6,0,0,1,1,9,4,3,6,12,5,5,3,1,1,3,1,6,4,5,7,5,0,7,0,1,1,1,7,3,0,0,0,3,1,1,12,1,0,0,0,7,5,3,6,7,6,7,6,6,4,4,4,6,0,0,1,6,0,0,0,4,0,0,12,1,1,1,0,1,0,1,2,5,10,4,6,1,0,0,4,9,0,0,0,0,4,0,0,1,0,0,0,6,6,5,7,6,0,7,0,3,0,0,0,0,0,0,0,1,1,1,0,0,0,0,0,0,0,3,5,4,3,4,4,0,0,5,0,0,0,2,7,0,0,5,4,4,4,0,5,0,0,0,0,3,0,4,7,0,0,1,1,1,4,0,0,1,6,10,0,5,0,0,0,5,7,5,0,0,0,1,0,1,5,4,6,0,1,6,4,4,0,0,7,0,0,7,4,1,0,0,0,1,0,0,0,7,1,1,0,0,0,0,0,0,0,0,0,0,0,0,0,0,0,0,0,0,0,0,0,0,0,0,0,0,0,0,0,0,0,0,0,0,0,0,0,0,0,0,0,0,0,0,0,0,0,0,0],"split_type":[0,0,0,0,0,0,0,0,0,0,0,0,0,0,0,0,0,0,0,0,0,0,0,0,0,0,0,0,0,0,0,0,0,0,0,0,0,0,0,0,0,0,0,0,0,0,0,0,0,0,0,0,0,0,0,0,0,0,0,0,0,0,0,0,0,0,0,0,0,0,0,0,0,0,0,0,0,0,0,0,0,0,0,0,0,0,0,0,0,0,0,0,0,0,0,0,0,0,0,0,0,0,0,0,0,0,0,0,0,0,0,0,0,0,0,0,0,0,0,0,0,0,0,0,0,0,0,0,0,0,0,0,0,0,0,0,0,0,0,0,0,0,0,0,0,0,0,0,0,0,0,0,0,0,0,0,0,0,0,0,0,0,0,0,0,0,0,0,0,0,0,0,0,0,0,0,0,0,0,0,0,0,0,0,0,0,0,0,0,0,0,0,0,0,0,0,0,0,0,0,0,0,0,0,0,0,0,0,0,0,0,0,0,0,0,0,0,0,0,0,0,0,0,0,0,0,0,0,0,0,0,0,0,0,0,0,0,0,0,0,0,0,0,0,0,0,0,0,0,0,0,0,0,0,0,0,0,0,0],"sum_hessian":[1.7385E3,1.1385E3,6E2,8.505E2,2.88E2,3.25E2,2.75E2,6.185E2,2.32E2,2.725E2,1.55E1,1.4575E2,1.7925E2,2.33E2,4.2E1,4.3725E2,1.8125E2,1.7925E2,5.275E1,2.64E2,8.5E0,9E0,6.5E0,2.125E2,2.05E1,3.75E1,4.5E0,3.7875E2,5.85E1,1.6325E2,1.8E1,1.78E2,1.25E0,3.85E1,1.425E1,2.4975E2,1.425E1,6.5E0,2E0,6E0,3E0,1.25E0,5.25E0,2.925E1,1.8325E2,1.125E1,9.25E0,3.65E1,1E0,1.25E0,3.25E0,3.03E2,7.575E1,2.825E1,3.025E1,1.6025E2,3E0,1.3E1,5E0,1.755E2,2.5E0,2.65E1,1.2E1,2.4775E2,2E0,1.5E0,1.275E1,4E0,2.5E0,1E0,1E0,3.5E0,2.5E0,2.7E1,2.25E0,8.75E0,1.745E2,5E0,6.25E0,7E0,2.25E0,5.25E0,3.125E1,2.6825E2,3.475E1,7.075E1,5E0,2.625E1,2E0,2.6E1,4.25E0,1.205E2,3.975E1,2E0,1E0,1.1E1,2E0,1.75E0,3.25E0,1.1725E2,5.825E1,1.5E0,1E0,1.7E1,9.5E0,1E1,2E0,2.235E2,2.425E1,1.175E1,1E0,2.75E0,1.25E0,1.25E0,2.25E0,1.25E0,1E0,1.25E0,7.5E0,4.925E1,1.2525E2,2.75E0,2.25E0,3.5E0,3.5E0,2.25E0,3E0,2.975E1,1.5E0,2.4975E2,1.85E1,3.2E1,2.75E0,6.15E1,9.25E0,3.75E0,1.25E0,1.025E1,1.6E1,1.5E0,2.75E0,1.0925E2,1.125E1,1E0,1E0,9.25E1,2.475E1,1.025E1,6.75E0,5.5E0,4E0,8.25E0,1.75E0,1E0,1E0,2.225E2,1E0,9E0,2.75E0,1.5E0,1.25E0,5E0,4.425E1,6.55E1,5.975E1,1E0,1.75E0,2.205E2,2.925E1,6E0,1.25E1,3.1E1,1E0,1.75E0,1E0,3.125E1,3.025E1,7E0,2.25E0,9.25E0,1E0,1.25E1,3.5E0,1.0725E2,2E0,3.5E0,7.75E0,6.55E1,2.7E1,2.175E1,3E0,7.75E0,2.5E0,1.5E0,5.25E0,1.75E0,2.25E0,7.5E1,1.475E2,7.75E0,1.25E0,1.5E0,1.25E0,3.25E0,1.75E0,1.25E1,3.175E1,5.025E1,1.525E1,5.825E1,1.5E0,2.05E1,2E2,1.95E1,9.75E0,3.25E0,2.75E0,2.2E1,9E0,2.175E1,9.5E0,2.1E1,9.25E0,4.5E0,2.5E0,1.75E0,1.075E1,9.725E1,1E1,1E0,1E0,2E0,1.5E0,2.5E0,5.25E0,2.75E0,2.425E1,1E0,2.075E1,1E0,2E0,6.5E0,1.25E0,4.25E0,1E0,4.725E1,2.775E1,1.4525E2,2.25E0,4E0,3.75E0,1.5E0,1.75E0,4.875E1,1.5E0,5.75E0,9.5E0,4.675E1,1.15E1],"tree_param":{"num_deleted":"0","num_feature":"14","num_nodes":"259","size_leaf_vector":"0"}},{"base_weights":[1.22274235E-2,-5.9080404E-1,1.1566973E0,-3.7104404E-1,-1.2371972E0,1.6409546E0,5.842338E-1,-5.2176278E-2,-1.2197628E0,-1.2975128E0,-1.6434212E-1,1.4800404E-1,1.7631309E-1,4.9882272E-1,1.0365069E0,3.559227E-1,-1.0364695E0,-1.4182302E0,-5.325614E-1,-1.3359506E0,-9.333498E-2,4.625043E-1,-9.784942E-1,5.420193E-1,1.20344914E-1,1.1105939E0,3.3056092E-1,2.2300173E-1,1.6449296E-1,-1.2389623E0,7.6808715E-1,-1.4308507E0,2.0989144E-2,-6.730245E-2,-1.708588E-1,-1.3620666E0,-8.201636E-1,-3.7181103E-1,6.338885E-2,-1.9453323E-3,1.1597607E-1,2.0989144E-2,-1.250779E-1,7.212438E-1,4.514079E-1,-8.504907E-2,6.1785823E-1,1.1403277E0,-0E0,-6.30032E-2,7.615756E-2,3.8001782E-1,-3.944731E-1,-1.2676905E0,2.2544286E-1,1.4417289E-1,-9.268151E-1,-1.3064221E0,-1.6548394E-1,3.68818E-1,-9.857289E-1,-1.4155974E0,-1.0998008E0,-9.110746E-1,6.666645E-4,-0E0,-7.9700015E-2,6.1772406E-1,-7.9700015E-2,6.241789E-1,1.0207732E-1,8.566542E-1,3.7505352E-1,-5.5655837E-2,1.0286636E-1,3.3546355E-1,9.300688E-2,5.2181184E-1,1.225085E0,4.877625E-1,-4.7776148E-1,-5.402385E-1,9.619019E-1,-1.1474819E0,-1.5958044E-1,8.650482E-2,-6.5647505E-2,-1.7025717E-2,-1.1991221E-1,-1.331762E0,4.0926334E-2,-1.0181414E-1,1.1418926E0,-1.1652218E0,3.980266E-9,-1.2698892E0,-1.5266143E-1,-1.2047063E0,3.2652187E-1,-6.625973E-1,-1.3964164E-1,-3.7792584E-1,6.30032E-2,-6.30032E-2,1.2931876E-1,8.084136E-1,3.4699872E-1,8.859121E-2,2.0989144E-2,-4.6231264E-1,4.5649898E-1,7.8992195E-2,-1.1028808E-1,-0E0,4.1003965E-2,1.00445114E-1,-0E0,1.2543869E-1,3.7609342E-2,4.130241E-1,1.4674891E0,-5.973814E-1,8.0406255E-1,-7.628673E-1,-1.00316145E-1,1.2121045E-1,2.770734E-1,-1.2532767E0,-1.0443667E-1,-1.4276503E0,-9.32724E-1,3.6697754E-1,-7.7045053E-1,1.4156002E-1,5.5869246E-1,-3.388135E-2,-1.2599622E-1,-1.282038E0,-3.0897548E-2,-1.2959358E0,-6.3198596E-1,8.413791E-2,-3.2059398E-2,-2.951984E-1,-1.0837661E0,-0E0,-6.30032E-2,5.5935264E-1,9.164546E-2,-1.6655598E-2,4.2308894E-1,3.898261E-2,-8.9737944E-2,6.785943E-1,3.5184193E-1,1.0265288E-1,-2.2292314E-1,5.0929785E-1,-3.7011513E-1,8.93655E-1,1.639943E-1,-6.918121E-1,4.940623E-2,1.1264688E-1,-0E0,-3.1585735E-1,-9.650264E-1,1.8488203E-1,-5.393943E-1,-6.64958E-2,1.0961038E-1,-1.276532E0,-0E0,6.274658E-1,-4.6913305E-1,-1.529345E0,-1.1356962E0,-1.0574149E0,8.351697E-3,4.6868328E-2,1.06378905E-1,3.7609342E-2,-1.1068492E0,1.1619651E-1,-3.1965006E-2,-1.2990389E0,-4.7577837E-1,-1.3745613E0,-5.584076E-1,-8.5331583E-1,3.136855E-2,-6.7896485E-1,3.0958444E-2,-1.3190816E-1,-3.439858E-2,1.2217174E-1,3.325313E-1,6.758232E-2,2.7444574E-1,1.7453246E-1,7.4845046E-2,2.914075E-1,9.195906E-2,-3.107079E-2,5.1626403E-2,-4.6400283E-2,1.4482472E-3,8.987376E-2,3.5520468E-2,-6.523009E-2,2.2294354E-2,3.26032E-2,1.329084E-1,2.4677671E-2,-8.385376E-2,-5.8188725E-2,4.242087E-2,-1.0706009E-1,1.49984285E-2,1.18593335E-1,5.675123E-4,-7.649084E-2,6.278055E-2,-1.3166435E-1,-6.714242E-2,-0E0,1.1305224E-1,5.309328E-2,-9.548836E-2,-1.5496384E-1,-6.5611236E-2,-3.707793E-2,-1.20457664E-1,-0E0,-1.106204E-1,6.488704E-2,-5.186194E-2,2.4359435E-2,-6.30032E-2,-1.3185489E-1,-0E0,-6.849741E-2,6.354689E-2,-1.4991347E-1,-1.1789298E-1,2.986838E-2,-1.0382177E-1,-6.803652E-2,-1.4473088E-1,-1.5185553E-2,-1.031902E-1,-1.2273391E-1,-7.293559E-3,-1.2117659E-2,-1.1327662E-1,-1.8495096E-2,5.3994726E-2,3.1272765E-2,-3.8334974E-3,6.308487E-2,-5.109941E-2,2.4733894E-2,9.7304486E-2],"categories":[],"categories_nodes":[],"categories_segments":[],"categories_sizes":[],"default_left":[0,0,0,0,0,0,0,0,0,0,0,0,0,0,0,0,0,0,0,0,0,0,0,0,0,0,0,0,0,0,0,0,0,0,0,0,0,0,0,0,0,0,0,0,0,0,0,0,0,0,0,0,0,0,0,0,0,0,0,0,0,0,0,0,0,0,0,0,0,0,0,0,0,0,0,0,0,0,0,0,0,0,0,0,0,0,0,0,0,0,0,0,0,0,0,0,0,0,0,0,0,0,0,0,0,0,0,0,0,0,0,0,0,0,0,0,0,0,0,0,0,0,0,0,0,0,0,0,0,0,0,0,0,0,0,0,0,0,0,0,0,0,0,0,0,0,0,0,0,0,0,0,0,0,0,0,0,0,0,0,0,0,0,0,0,0,0,0,0,0,0,0,0,0,0,0,0,0,0,0,0,0,0,0,0,0,0,0,0,0,0,0,0,0,0,0,0,0,0,0,0,0,0,0,0,0,0,0,0,0,0,0,0,0,0,0,0,0,0,0,0,0,0,0,0,0,0,0,0,0,0,0,0,0,0,0,0,0,0,0,0,0,0,0,0,0,0,0,0,0,0,0,0,0,0,0,0,0,0,0,0,0,0],"id":1,"left_children":[1,3,5,7,9,11,13,15,17,19,21,-1,-1,23,25,27,29,31,33,35,37,39,41,43,45,47,49,51,-1,53,55,57,-1,59,-1,61,63,65,-1,67,-1,-1,-1,69,71,73,75,77,-1,-1,-1,79,81,83,85,-1,87,89,-1,91,93,95,97,99,-1,101,-1,103,-1,105,-1,107,109,-1,111,113,-1,115,117,119,121,123,125,127,-1,-1,-1,-1,-1,129,-1,131,133,135,-1,137,-1,139,141,143,-1,145,-1,-1,-1,147,149,-1,-1,151,153,-1,155,-1,-1,-1,-1,-1,-1,157,159,161,163,165,167,-1,169,171,173,175,177,179,181,-1,183,-1,-1,185,-1,187,189,-1,-1,191,193,-1,-1,195,-1,-1,197,-1,-1,199,201,203,205,207,209,211,-1,213,-1,-1,-1,215,217,219,221,-1,-1,223,-1,225,227,229,231,233,235,237,-1,-1,239,-1,241,243,245,247,249,251,-1,253,-1,-1,-1,-1,255,-1,257,259,-1,261,-1,-1,-1,-1,-1,-1,-1,-1,-1,-1,-1,-1,-1,-1,-1,-1,-1,-1,-1,-1,-1,-1,-1,-1,-1,-1,-1,-1,-1,-1,-1,-1,-1,-1,-1,-1,-1,-1,-1,-1,-1,-1,-1,-1,-1,-1,-1,-1,-1,-1,-1,-1,-1,-1,-1,-1,-1,-1,-1,-1,-1],"loss_changes":[1.1958164E3,1.6073819E2,1.6479535E2,2.2950919E2,1.8390076E1,3.7476807E0,1.0127464E1,2.4847986E2,3.0835236E1,1.246698E1,8.846376E0,0E0,0E0,3.7557144E0,1.873703E0,7.457208E1,6.7196594E1,3.9808044E0,2.9160866E1,2.4329834E0,2.1575763E0,3.2314596E0,2.6814914E0,3.0764122E0,2.6304E0,1.2664413E0,2.7541263E0,3.8703514E1,0E0,7.159195E0,2.2924274E1,2.7954102E0,0E0,1.6136646E1,0E0,1.943634E0,1.1497412E0,1.1845114E0,0E0,3.9327853E0,0E0,0E0,0E0,1.3594284E0,4.0667133E0,1.7172014E0,3.4858274E-1,1.3188286E0,0E0,0E0,0E0,2.9580666E1,1.6555763E1,4.494934E0,2.8199763E0,0E0,1.0291114E0,5.722809E0,0E0,1.0095504E1,2.2914524E0,1.3546143E0,7.3881607E0,7.287073E-1,0E0,1.4279712E0,0E0,4.5971813E0,0E0,2.4994774E0,0E0,2.2476864E-1,8.470556E0,0E0,2.1725178E0,1.3755333E-1,0E0,1.5724036E0,3.269806E-1,2.0086914E1,5.991127E0,7.159031E0,1.074378E0,1.3215088E1,0E0,0E0,0E0,0E0,0E0,3.1680908E0,0E0,5.9145474E0,8.7895393E-1,4.3090534E-1,0E0,7.010498E-1,0E0,1.4673042E0,1.5989205E0,1.3781376E0,0E0,3.5715806E-1,0E0,0E0,0E0,3.47126E-1,9.883189E-1,0E0,0E0,4.513977E0,2.338419E0,0E0,3.0459544E-1,0E0,0E0,0E0,0E0,0E0,0E0,2.0090229E1,4.7789E-1,3.7889767E0,9.0575147E-1,4.1143456E0,3.3525112E0,0E0,3.428246E0,3.1976929E0,3.558397E0,1.0222473E0,3.0208626E0,2.4571352E0,3.3968549E0,0E0,1.8164084E0,0E0,0E0,6.497803E-1,0E0,1.3660469E0,1.934665E0,0E0,0E0,1.8895044E0,3.7113285E-1,0E0,0E0,1.4316027E0,0E0,0E0,5.936668E-1,0E0,0E0,1.0819292E0,2.3890982E0,9.7219956E-1,4.644392E-1,1.381234E1,5.078405E0,1.231442E0,0E0,4.5035954E0,0E0,0E0,0E0,3.537746E0,4.06723E0,2.9518538E0,3.2397346E0,0E0,0E0,1.7304535E0,0E0,1.4187281E0,4.7497015E0,1.5350342E-1,1.0229607E0,1.1697159E0,1.6850641E0,1.3183177E0,0E0,0E0,1.4594345E0,0E0,1.9590994E0,3.957672E-1,1.829425E0,6.5986633E-1,8.49841E-1,1.8727064E0,0E0,1.0624764E0,0E0,0E0,0E0,0E0,1.2254167E0,0E0,1.8851924E-1,2.0414777E0,0E0,1.9057007E0,0E0,0E0,0E0,0E0,0E0,0E0,0E0,0E0,0E0,0E0,0E0,0E0,0E0,0E0,0E0,0E0,0E0,0E0,0E0,0E0,0E0,0E0,0E0,0E0,0E0,0E0,0E0,0E0,0E0,0E0,0E0,0E0,0E0,0E0,0E0,0E0,0E0,0E0,0E0,0E0,0E0,0E0,0E0,0E0,0E0,0E0,0E0,0E0,0E0,0E0,0E0,0E0,0E0,0E0,0E0,0E0,0E0,0E0,0E0,0E0,0E0],"parents":[2147483647,0,0,1,1,2,2,3,3,4,4,5,5,6,6,7,7,8,8,9,9,10,10,13,13,14,14,15,15,16,16,17,17,18,18,19,19,20,20,21,21,22,22,23,23,24,24,25,25,26,26,27,27,29,29,30,30,31,31,33,33,35,35,36,36,37,37,39,39,43,43,44,44,45,45,46,46,47,47,51,51,52,52,53,53,54,54,56,56,57,57,59,59,60,60,61,61,62,62,63,63,65,65,67,67,69,69,71,71,72,72,74,74,75,75,77,77,78,78,79,79,80,80,81,81,82,82,83,83,89,89,91,91,92,92,93,93,95,95,97,97,98,98,99,99,101,101,105,105,106,106,109,109,110,110,112,112,119,119,120,120,121,121,122,122,123,123,124,124,126,126,127,127,128,128,129,129,130,130,131,131,132,132,134,134,137,137,139,139,140,140,143,143,144,144,147,147,150,150,153,153,154,154,155,155,156,156,157,157,158,158,159,159,161,161,165,165,166,166,167,167,168,168,171,171,173,173,174,174,175,175,176,176,177,177,178,178,179,179,182,182,184,184,185,185,186,186,187,187,188,188,189,189,191,191,196,196,198,198,199,199,201,201],"right_children":[2,4,6,8,10,12,14,16,18,20,22,-1,-1,24,26,28,30,32,34,36,38,40,42,44,46,48,50,52,-1,54,56,58,-1,60,-1,62,64,66,-1,68,-1,-1,-1,70,72,74,76,78,-1,-1,-1,80,82,84,86,-1,88,90,-1,92,94,96,98,100,-1,102,-1,104,-1,106,-1,108,110,-1,112,114,-1,116,118,120,122,124,126,128,-1,-1,-1,-1,-1,130,-1,132,134,136,-1,138,-1,140,142,144,-1,146,-1,-1,-1,148,150,-1,-1,152,154,-1,156,-1,-1,-1,-1,-1,-1,158,160,162,164,166,168,-1,170,172,174,176,178,180,182,-1,184,-1,-1,186,-1,188,190,-1,-1,192,194,-1,-1,196,-1,-1,198,-1,-1,200,202,204,206,208,210,212,-1,214,-1,-1,-1,216,218,220,222,-1,-1,224,-1,226,228,230,232,234,236,238,-1,-1,240,-1,242,244,246,248,250,252,-1,254,-1,-1,-1,-1,256,-1,258,260,-1,262,-1,-1,-1,-1,-1,-1,-1,-1,-1,-1,-1,-1,-1,-1,-1,-1,-1,-1,-1,-1,-1,-1,-1,-1,-1,-1,-1,-1,-1,-1,-1,-1,-1,-1,-1,-1,-1,-1,-1,-1,-1,-1,-1,-1,-1,-1,-1,-1,-1,-1,-1,-1,-1,-1,-1,-1,-1,-1,-1,-1,-1],"split_conditions":[1E0,1.8045478E-1,1E0,9.9288E-2,4.541903E-1,1E0,1E0,3.940345E-2,5.429281E-1,2.459533E0,-9.425376E-2,1.4800404E-1,1.7631309E-1,9.781247E-1,8.4008914E-1,7.32194E-1,1.6270185E0,1.12959936E-1,2.3637266E0,1E0,5.710751E0,-2.6910886E-1,2.809471E-1,1E0,1.9443735E0,-3.3550575E-1,1.3232136E0,-2.4028982E-1,1.6449296E-1,2.8630412E0,1.8889E0,1.043244E0,2.0989144E-2,2.7680933E-1,-1.708588E-1,9.781247E-1,-2.172383E-1,3.5696474E-1,6.338885E-2,1.3878624E0,1.1597607E-1,2.0989144E-2,-1.250779E-1,1.1875856E-2,-1.7135684E0,1E0,1E0,-1.7825862E0,-0E0,-6.30032E-2,7.615756E-2,-1.7792767E-1,1.8790764E0,1.0134658E0,8.089363E-2,1.4417289E-1,-2.6316294E-1,3.632022E0,-1.6548394E-1,2.248183E0,5.254719E0,-2.6419523E-1,3.054812E-3,-2.3589115E-1,6.666645E-4,-2.719603E-1,-7.9700015E-2,7.32194E-1,-7.9700015E-2,-5.4026634E-1,1.0207732E-1,-3.3550575E-1,-1.2994618E0,-5.5655837E-2,1.1161603E0,2.0824091E0,9.300688E-2,-1.9206218E0,2.343934E-2,1.7153579E0,1E0,-2.3008037E-2,-1.859653E-2,1E0,-1.5958044E-1,8.650482E-2,-6.5647505E-2,-1.7025717E-2,-1.1991221E-1,8.4008914E-1,4.0926334E-2,9.1216344E-1,9.1216344E-1,2.3476724E-1,3.980266E-9,1.8790764E0,-1.5266143E-1,4.3537682E-1,2.8043798E-1,7.384121E-1,-1.3964164E-1,8.3440477E-1,6.30032E-2,-6.30032E-2,1.2931876E-1,-9.54373E-1,-4.7124857E-1,8.859121E-2,2.0989144E-2,-1.5755329E0,-6.783019E-1,7.8992195E-2,1.3922313E0,-0E0,4.1003965E-2,1.00445114E-1,-0E0,1.2543869E-1,3.7609342E-2,-1.0902309E-1,2.3140054E0,1.5992846E0,-6.70263E-2,1E0,-2.6433644E-1,1.2121045E-1,-2.6433644E-1,2.343934E-2,3.7631032E-1,-2.4595673E-1,-7.6995365E-2,1.7380959E0,7.32194E-1,1.4156002E-1,-2.398976E-1,-3.388135E-2,-1.2599622E-1,2.343934E-2,-3.0897548E-2,1E0,1.3878624E0,8.413791E-2,-3.2059398E-2,5.239285E-1,1E0,-0E0,-6.30032E-2,-1.9206218E0,9.164546E-2,-1.6655598E-2,-3.33213E-1,3.898261E-2,-8.9737944E-2,-1.0924085E0,7.020536E-1,1.2541958E0,1.5992846E0,1E0,-2.719603E-1,1E0,1.639943E-1,-9.54373E-1,4.940623E-2,1.1264688E-1,-0E0,6.7185915E-1,1.154746E0,-2.3061274E-1,5.7023203E-1,-6.64958E-2,1.0961038E-1,1.4612491E0,-0E0,8.2899886E-1,-2.7020082E-1,2.214863E-1,-6.783019E-1,1.29199E-1,4.7141603E-1,1.3707339E0,1.06378905E-1,3.7609342E-2,-1.0635678E-1,1.1619651E-1,2.1074317E-2,-6.783019E-1,-6.783019E-1,1.1161603E0,-2.7308726E-1,1.806338E0,3.136855E-2,-2.719603E-1,3.0958444E-2,-1.3190816E-1,-3.439858E-2,1.2217174E-1,-1.7135684E0,6.758232E-2,6.5930087E-17,-1.1614263E0,7.4845046E-2,-2.8564608E-1,9.195906E-2,-3.107079E-2,5.1626403E-2,-4.6400283E-2,1.4482472E-3,8.987376E-2,3.5520468E-2,-6.523009E-2,2.2294354E-2,3.26032E-2,1.329084E-1,2.4677671E-2,-8.385376E-2,-5.8188725E-2,4.242087E-2,-1.0706009E-1,1.49984285E-2,1.18593335E-1,5.675123E-4,-7.649084E-2,6.278055E-2,-1.3166435E-1,-6.714242E-2,-0E0,1.1305224E-1,5.309328E-2,-9.548836E-2,-1.5496384E-1,-6.5611236E-2,-3.707793E-2,-1.20457664E-1,-0E0,-1.106204E-1,6.488704E-2,-5.186194E-2,2.4359435E-2,-6.30032E-2,-1.3185489E-1,-0E0,-6.849741E-2,6.354689E-2,-1.4991347E-1,-1.1789298E-1,2.986838E-2,-1.0382177E-1,-6.803652E-2,-1.4473088E-1,-1.5185553E-2,-1.031902E-1,-1.2273391E-1,-7.293559E-3,-1.2117659E-2,-1.1327662E-1,-1.8495096E-2,5.3994726E-2,3.1272765E-2,-3.8334974E-3,6.308487E-2,-5.109941E-2,2.4733894E-2,9.7304486E-2],"split_indices":[0,3,8,6,4,9,11,7,4,5,6,0,0,1,1,4,4,3,6,12,5,5,3,13,1,3,1,6,0,5,7,6,0,7,0,1,4,1,0,3,0,0,0,1,1,13,12,1,0,0,0,7,5,7,1,0,6,5,0,4,4,1,4,6,0,6,0,4,0,1,0,3,1,0,1,1,0,1,2,5,10,4,6,9,0,0,0,0,0,1,0,6,6,6,0,5,0,5,4,3,0,3,0,0,0,1,1,0,0,1,1,0,1,0,0,0,0,0,0,3,5,1,3,13,7,0,7,2,7,5,4,4,4,0,7,0,0,2,0,11,3,0,0,3,10,0,0,1,0,0,1,0,0,1,1,1,1,8,6,10,0,1,0,0,0,5,5,6,4,0,0,1,0,4,6,4,1,6,6,4,0,0,7,0,7,1,1,1,4,1,0,6,0,0,0,0,1,0,1,1,0,5,0,0,0,0,0,0,0,0,0,0,0,0,0,0,0,0,0,0,0,0,0,0,0,0,0,0,0,0,0,0,0,0,0,0,0,0,0,0,0,0,0,0,0,0,0,0,0,0,0,0,0,0,0,0,0,0,0,0,0,0,0],"split_type":[0,0,0,0,0,0,0,0,0,0,0,0,0,0,0,0,0,0,0,0,0,0,0,0,0,0,0,0,0,0,0,0,0,0,0,0,0,0,0,0,0,0,0,0,0,0,0,0,0,0,0,0,0,0,0,0,0,0,0,0,0,0,0,0,0,0,0,0,0,0,0,0,0,0,0,0,0,0,0,0,0,0,0,0,0,0,0,0,0,0,0,0,0,0,0,0,0,0,0,0,0,0,0,0,0,0,0,0,0,0,0,0,0,0,0,0,0,0,0,0,0,0,0,0,0,0,0,0,0,0,0,0,0,0,0,0,0,0,0,0,0,0,0,0,0,0,0,0,0,0,0,0,0,0,0,0,0,0,0,0,0,0,0,0,0,0,0,0,0,0,0,0,0,0,0,0,0,0,0,0,0,0,0,0,0,0,0,0,0,0,0,0,0,0,0,0,0,0,0,0,0,0,0,0,0,0,0,0,0,0,0,0,0,0,0,0,0,0,0,0,0,0,0,0,0,0,0,0,0,0,0,0,0,0,0,0,0,0,0,0,0,0,0,0,0,0,0,0,0,0,0,0,0,0,0,0,0,0,0,0,0,0,0],"sum_hessian":[1.730697E3,1.1337812E3,5.969158E2,8.472934E2,2.8648785E2,3.223595E2,2.7455627E2,6.1666925E2,2.3062415E2,2.7104062E2,1.5447233E1,1.4478377E2,1.7757571E2,2.3271191E2,4.1844376E1,4.3637973E2,1.8028952E2,1.7811873E2,5.2505413E1,2.6255048E2,8.490142E0,8.971588E0,6.4756446E0,2.0848492E2,2.4226995E1,3.7351265E1,4.493108E0,3.9665057E2,3.972916E1,1.6238177E2,1.7907753E1,1.7686888E2,1.2498457E0,3.8379116E1,1.4126297E1,2.4833566E2,1.4214819E1,6.492638E0,1.9975042E0,5.9832764E0,2.9883118E0,1.2498457E0,5.225799E0,6.767254E1,1.4081238E2,1.773451E1,6.4924846E0,3.6351265E1,1E0,1.2486122E0,3.2444959E0,3.165424E2,8.0108185E1,1.5938925E2,2.9925127E0,1.2921468E1,4.9862857E0,1.1809699E2,5.8771885E1,2.642803E1,1.1951088E1,2.0258809E2,4.5747585E1,1.2714911E1,1.4999074E0,3.9972243E0,2.4954138E0,3.4878626E0,2.4954138E0,5.343905E1,1.4233488E1,2.0704586E1,1.20107796E2,4.494744E0,1.3239767E1,4.4982724E0,1.9942124E0,5.243489E0,3.1107777E1,2.8160202E2,3.4940342E1,7.287793E1,7.23026E0,1.19943634E2,3.944562E1,1.7456323E0,1.2468803E0,1.7498553E0,3.2364304E0,1.1659866E2,1.4983327E0,1.6967102E1,9.460928E0,9.9560795E0,1.9950085E0,9.298507E1,1.0960301E2,4.2758118E1,2.9894664E0,9.973872E0,2.741039E0,2.7486122E0,1.2486122E0,1.2486122E0,2.2392504E0,3.0950481E1,2.248857E1,1.945474E1,1.2498457E0,1.0232093E1,1.098757E2,2.4942489E0,1.0745518E1,1E0,3.4982722E0,2.243489E0,3E0,2.9608377E1,1.4994001E0,2.6296344E2,1.8638586E1,3.24464E1,2.493942E0,4.790224E1,2.4975685E1,4.7316203E0,2.4986398E0,1.0871523E2,1.1228403E1,9.19302E1,2.4668467E1,1.0239311E1,6.72779E0,5.4675837E0,3.9933443E0,1.4946525E0,8.461427E0,9.1494125E1,1.4909427E0,3.5793716E1,6.964403E0,1.4976836E0,1.4917828E0,6.2354207E0,3.7384517E0,1.5E0,1.2486122E0,1.1232964E1,1.9717516E1,2.7485943E0,1.9739975E1,3.4935246E0,6.738568E0,3.3436115E1,7.643959E1,3.7481391E0,6.997379E0,2.3448691E2,2.8476545E1,5.7355914E0,1.2902994E1,3.0199701E1,2.2466996E0,1.493942E0,1E0,1.5715308E1,3.218693E1,1.549198E1,9.483706E0,1.2495497E0,1.24909E0,1.0671648E2,1.9987506E0,3.494613E0,7.73379E0,6.50377E1,2.6892498E1,2.1673183E1,2.9952836E0,7.7474566E0,2.4918544E0,1.4994001E0,5.2283897E0,1.4970648E0,2.4962795E0,8.9006134E1,2.48799E0,3.1564934E1,4.2287817E0,5.722695E0,1.2417079E0,3.7397158E0,2.4957047E0,2.242171E0,1.4962807E0,1.7465185E0,9.486445E0,5.996933E0,1.3743043E1,4.495604E0,2.8940512E1,7.045339E1,5.986197E0,1.9990706E0,1.7490684E0,2.9982526E0,3.9991264E0,6.510772E1,1.6937918E2,1.9227795E1,9.24875E0,3.2489882E0,2.4866035E0,3.9905622E0,2.6209139E1,1.1717118E1,3.9981897E0,2.9439308E1,2.7476244E0,1.4992847E0,1.3992695E1,8.236919E0,1.2467872E0,9.897944E1,7.7370443E0,2E0,1.4946129E0,2.4979603E0,5.2358294E0,6.280358E1,2.2341194E0,2.7489004E0,2.4143597E1,1E0,2.0673183E1,1.247573E0,1.7477106E0,6.4988446E0,1.2486122E0,4.2283897E0,1E0,1.248491E0,1.2477883E0,2.9079563E1,5.992657E1,1.243995E0,1.243995E0,3.9760175E0,2.7588917E1,2.9858127E0,1.2429688E0,3.4813814E0,2.2413137E0,2.2460356E0,1.4936802E0,2.745358E0,6.7410874E0,1.2244572E1,1.498471E0,2.746905E0,1.748699E0,6.74552E1,2.9981883E0],"tree_param":{"num_deleted":"0","num_feature":"14","num_nodes":"263","size_leaf_vector":"0"}},{"base_weights":[1.1216801E-2,-5.3914666E-1,1.0585709E0,-3.376429E-1,-1.1340792E0,1.5113958E0,5.324646E-1,-4.644329E-2,-1.11886E0,-1.1896926E0,-1.4933449E-1,1.357537E-1,1.6292356E-1,4.54345E-1,9.488513E-1,3.2402983E-1,-9.479516E-1,-1.3020886E0,-4.873544E-1,-1.2253137E0,-8.598116E-2,4.301349E-1,-9.028626E-1,4.9323452E-1,1.1382094E-1,1.0172818E0,3.0099514E-1,1.7264229E-1,1.2992206E0,-1.13312E0,7.011383E-1,-1.3139379E0,1.982711E-2,-5.9376035E-2,-1.584466E-1,-1.1802013E0,-1.5876915E-1,-3.4625706E-1,5.9271313E-2,-3.527732E-3,1.0818031E-1,1.982711E-2,-1.15832545E-1,6.5787834E-1,4.100716E-1,-7.668081E-2,5.754989E-1,1.0448039E0,-0E0,-5.9611686E-2,7.059454E-2,3.1399417E-1,-3.9083886E-1,9.8542196E-1,1.5557522E0,-1.1539564E0,4.9282975E-2,1.3282095E0,-8.626418E-1,-1.197236E0,-1.5256384E-1,3.4267446E-1,-9.071782E-1,-1.0006158E0,-1.2873162E0,-0E0,-7.428717E-2,5.7530546E-1,-7.428717E-2,5.695766E-1,9.308439E-2,7.806139E-1,3.4048125E-1,-5.1120788E-2,9.6599534E-2,3.096525E-1,8.724658E-2,6.526893E-2,1.1783341E0,4.0690482E-1,-3.9546415E-1,-4.894929E-1,8.599433E-1,1.0939926E0,-3.2152627E-2,1.6355222E-1,8.513004E-1,-1.0427495E0,-1.4850969E0,1.4148329E-1,5.4130048E-2,-2.768702E-1,-1.2711257E-1,-1.2210013E0,3.8474377E-2,-9.3701944E-2,1.0626256E0,-4.6541446E-1,-1.4674248E-1,-8.6554325E-1,-1.3973694E0,-1.3002721E0,-3.8450754E-1,4.3207448E-2,-5.1150393E-2,-5.9611686E-2,1.2152325E-1,7.387253E-1,3.1597692E-1,8.06645E-2,1.982711E-2,-4.2239687E-1,4.1455173E-1,7.364732E-2,-1.0142442E-1,-0E0,3.785619E-2,1.2138184E-1,3.5377707E-2,3.3309814E-1,1.352317E0,-5.2176005E-1,8.2436216E-1,-6.3676614E-1,4.572747E-1,1.1811719E-1,-1.9273063E-2,1.53199E-1,7.4159366E-1,1.287304E-1,-1.43151E-2,-1.1557838E0,-3.4711793E-2,-4.8974976E-2,-1.5048276E-1,3.143589E-2,-6.980812E-2,-1.3108016E0,-8.504933E-1,3.3726254E-1,-7.114919E-1,1.3142161E-1,5.2673787E-1,-9.204317E-1,7.057401E-2,-9.5510584E-1,-3.8394728E-1,-5.380344E-1,-1.5420823E-1,-1.3123256E-1,-3.8088854E-2,-9.554803E-2,3.5619568E-2,5.3687966E-1,8.486688E-1,-1.5430683E-2,3.858433E-1,3.6003582E-2,-8.2350954E-2,6.160306E-1,3.1986603E-1,1.19713165E-1,-2.0002034E-1,4.199122E-1,-3.1375882E-1,8.701863E-1,1.5042548E-1,-6.089292E-1,4.5969088E-2,1.127061E-1,-0E0,-3.3315894E-1,-7.66966E-1,1.04164556E-1,1.195166E-1,4.6880865E-1,1.3975398E-1,-1.1771181E0,-0E0,1.8854536E-1,-8.7928705E-2,-1.4064186E0,-1.0387776E0,-9.6555233E-1,1.0792552E-2,3.778514E-2,9.944534E-2,3.5377707E-2,-1.0273783E0,-1.844386E-2,9.682606E-2,1.008792E-2,-1.2332554E-1,-1.0953814E0,-5.691868E-1,-7.150862E-1,2.4182755E-1,-9.5414035E-2,3.4644004E-2,1.150699E-1,3.555818E-1,9.983874E-2,5.832471E-1,6.193806E-1,2.4901229E-1,1.5958743E-1,6.7936406E-2,2.6421326E-1,8.4572986E-2,-2.9015332E-2,6.1320048E-2,-3.929203E-2,1.3323808E-3,1.00556925E-1,3.5547953E-2,-5.195654E-2,5.1849324E-2,3.013051E-2,1.287853E-1,1.4417209E-2,-7.194033E-2,3.9960905E-3,-7.106867E-2,-9.576753E-2,-3.6854964E-2,-2.8017059E-2,7.514796E-2,2.920225E-2,1.1271017E-1,-1.22105934E-1,-6.741082E-2,-1.6102364E-2,8.209008E-2,-1.4623567E-1,-9.54175E-2,-8.3071515E-3,-1.0801941E-1,-1.03229165E-1,-1.8066712E-2,5.08425E-2,-6.020664E-2,-3.279158E-2,3.775685E-2,-1.2260663E-1,-0E0,-5.228482E-2,-1.2990206E-1,-8.82066E-2,2.1729894E-2,6.8741234E-4,-1.1428157E-1,-3.5156857E-2,1.18150495E-1,-1.713194E-2,5.266568E-2,2.0867059E-2,8.00337E-2,3.5768062E-2,7.784159E-2,1.4492641E-2,4.0983032E-2,5.8574688E-2,-4.7913764E-2,2.2313153E-2,9.0299636E-2],"categories":[],"categories_nodes":[],"categories_segments":[],"categories_sizes":[],"default_left":[0,0,0,0,0,0,0,0,0,0,0,0,0,0,0,0,0,0,0,0,0,0,0,0,0,0,0,0,0,0,0,0,0,0,0,0,0,0,0,0,0,0,0,0,0,0,0,0,0,0,0,0,0,0,0,0,0,0,0,0,0,0,0,0,0,0,0,0,0,0,0,0,0,0,0,0,0,0,0,0,0,0,0,0,0,0,0,0,0,0,0,0,0,0,0,0,0,0,0,0,0,0,0,0,0,0,0,0,0,0,0,0,0,0,0,0,0,0,0,0,0,0,0,0,0,0,0,0,0,0,0,0,0,0,0,0,0,0,0,0,0,0,0,0,0,0,0,0,0,0,0,0,0,0,0,0,0,0,0,0,0,0,0,0,0,0,0,0,0,0,0,0,0,0,0,0,0,0,0,0,0,0,0,0,0,0,0,0,0,0,0,0,0,0,0,0,0,0,0,0,0,0,0,0,0,0,0,0,0,0,0,0,0,0,0,0,0,0,0,0,0,0,0,0,0,0,0,0,0,0,0,0,0,0,0,0,0,0,0,0,0,0,0,0,0,0,0,0,0,0,0,0,0,0,0,0,0,0,0,0,0,0,0,0,0],"id":2,"left_children":[1,3,5,7,9,11,13,15,17,19,21,-1,-1,23,25,27,29,31,33,35,37,39,41,43,45,47,49,51,53,55,57,59,-1,61,-1,63,-1,65,-1,67,-1,-1,-1,69,71,73,75,77,-1,-1,-1,79,81,83,85,87,-1,89,91,93,-1,95,97,99,101,103,-1,105,-1,107,-1,109,111,-1,113,115,-1,-1,117,119,121,123,125,127,-1,-1,129,131,133,-1,-1,135,-1,137,-1,139,141,143,-1,145,147,149,151,-1,-1,-1,-1,153,155,-1,-1,157,159,-1,161,-1,-1,-1,-1,163,165,167,169,171,173,-1,-1,-1,175,-1,-1,177,179,-1,-1,-1,-1,181,183,185,187,-1,189,191,-1,193,195,197,-1,-1,-1,-1,-1,199,201,-1,203,-1,-1,205,207,209,211,213,215,217,-1,219,-1,-1,-1,221,223,225,-1,227,-1,229,-1,231,-1,233,235,237,239,241,-1,-1,243,-1,-1,-1,-1,245,247,249,251,-1,-1,-1,253,-1,255,257,259,261,-1,263,-1,-1,-1,-1,-1,-1,-1,-1,-1,-1,-1,-1,-1,-1,-1,-1,-1,-1,-1,-1,-1,-1,-1,-1,-1,-1,-1,-1,-1,-1,-1,-1,-1,-1,-1,-1,-1,-1,-1,-1,-1,-1,-1,-1,-1,-1,-1,-1,-1,-1,-1,-1,-1,-1,-1,-1,-1],"loss_changes":[9.872472E2,1.3421317E2,1.3974615E2,1.9106424E2,1.5355774E1,3.5270386E0,8.496086E0,2.050503E2,2.5756104E1,1.0444244E1,7.5081816E0,0E0,0E0,3.0295677E0,1.5751648E0,6.402906E1,5.5394028E1,3.3927307E0,2.4740383E1,2.3744202E0,1.8771753E0,2.8001125E0,2.3143568E0,2.5895271E0,2.2590103E0,1.0628586E0,2.4096088E0,3.0221767E1,3.1625977E0,6.0278625E0,1.9451683E1,2.4953918E0,0E0,1.3634181E1,0E0,3.2323303E0,0E0,1.0262027E0,0E0,3.396491E0,0E0,0E0,0E0,1.1191196E0,3.3803806E0,1.4581263E0,3.1986237E-1,1.1662407E0,0E0,0E0,0E0,2.0111403E1,9.8274555E0,4.46179E0,3.1410217E-1,4.321213E0,0E0,1.6927338E-1,1.0716419E0,4.8841553E0,0E0,8.657453E0,2.4968147E0,3.736229E0,1.1809387E0,1.3237307E0,0E0,4.063926E0,0E0,2.0948982E0,0E0,1.6724968E-1,7.0020514E0,0E0,1.8761086E0,1.1722267E-1,0E0,0E0,3.409996E-1,1.8257652E1,5.907573E0,1.02321415E1,2.234838E0,3.0268059E0,0E0,0E0,2.427815E0,1.3938538E1,3.692627E-3,0E0,0E0,1.1465383E0,0E0,2.7419434E0,0E0,5.0001373E0,7.046375E-1,5.2580376E0,0E0,2.7162476E0,1.8827095E0,1.0654907E0,1.8006854E0,0E0,0E0,0E0,0E0,2.5035095E-1,8.305292E-1,0E0,0E0,3.8076658E0,1.9134369E0,0E0,2.7982423E-1,0E0,0E0,0E0,0E0,1.4172035E1,8.931732E-2,3.0886755E0,9.291065E-1,2.1998978E0,2.5278153E0,0E0,0E0,0E0,2.365919E0,0E0,0E0,2.719284E0,2.6925585E0,0E0,0E0,0E0,0E0,9.1781616E-1,2.5336437E0,2.168775E0,2.9439635E0,0E0,1.742008E0,2.2529063E0,0E0,2.6027222E0,2.8419466E0,2.0527868E0,0E0,0E0,0E0,0E0,0E0,1.1421247E0,1.6768837E-1,0E0,5.077362E-1,0E0,0E0,8.828049E-1,2.039966E0,1.0364411E0,3.5468557E-1,7.9769707E0,5.434769E0,1.2624493E0,0E0,2.6481686E0,0E0,0E0,0E0,2.9035606E0,2.89184E0,2.1959121E0,0E0,1.2337675E0,0E0,1.5702362E0,0E0,2.657096E0,0E0,2.4507141E-1,1.003191E0,9.906521E-1,1.5228246E0,1.2099012E0,0E0,0E0,1.259634E0,0E0,0E0,0E0,0E0,4.290638E0,4.613379E0,2.6869602E0,3.3173976E0,0E0,0E0,0E0,1.1907079E0,0E0,5.82041E-1,1.211977E-2,1.8724626E-1,1.7736702E0,0E0,1.6720262E0,0E0,0E0,0E0,0E0,0E0,0E0,0E0,0E0,0E0,0E0,0E0,0E0,0E0,0E0,0E0,0E0,0E0,0E0,0E0,0E0,0E0,0E0,0E0,0E0,0E0,0E0,0E0,0E0,0E0,0E0,0E0,0E0,0E0,0E0,0E0,0E0,0E0,0E0,0E0,0E0,0E0,0E0,0E0,0E0,0E0,0E0,0E0,0E0,0E0,0E0,0E0,0E0,0E0,0E0,0E0,0E0,0E0],"parents":[2147483647,0,0,1,1,2,2,3,3,4,4,5,5,6,6,7,7,8,8,9,9,10,10,13,13,14,14,15,15,16,16,17,17,18,18,19,19,20,20,21,21,22,22,23,23,24,24,25,25,26,26,27,27,28,28,29,29,30,30,31,31,33,33,35,35,37,37,39,39,43,43,44,44,45,45,46,46,47,47,51,51,52,52,53,53,54,54,55,55,57,57,58,58,59,59,61,61,62,62,63,63,64,64,65,65,67,67,69,69,71,71,72,72,74,74,75,75,78,78,79,79,80,80,81,81,82,82,83,83,86,86,87,87,88,88,91,91,93,93,95,95,96,96,97,97,99,99,100,100,101,101,102,102,107,107,108,108,111,111,112,112,114,114,119,119,120,120,121,121,122,122,123,123,124,124,128,128,131,131,132,132,137,137,138,138,139,139,140,140,142,142,143,143,145,145,146,146,147,147,153,153,154,154,156,156,159,159,160,160,161,161,162,162,163,163,164,164,165,165,167,167,171,171,172,172,173,173,175,175,177,177,179,179,181,181,182,182,183,183,184,184,185,185,188,188,193,193,194,194,195,195,196,196,200,200,202,202,203,203,204,204,205,205,207,207],"right_children":[2,4,6,8,10,12,14,16,18,20,22,-1,-1,24,26,28,30,32,34,36,38,40,42,44,46,48,50,52,54,56,58,60,-1,62,-1,64,-1,66,-1,68,-1,-1,-1,70,72,74,76,78,-1,-1,-1,80,82,84,86,88,-1,90,92,94,-1,96,98,100,102,104,-1,106,-1,108,-1,110,112,-1,114,116,-1,-1,118,120,122,124,126,128,-1,-1,130,132,134,-1,-1,136,-1,138,-1,140,142,144,-1,146,148,150,152,-1,-1,-1,-1,154,156,-1,-1,158,160,-1,162,-1,-1,-1,-1,164,166,168,170,172,174,-1,-1,-1,176,-1,-1,178,180,-1,-1,-1,-1,182,184,186,188,-1,190,192,-1,194,196,198,-1,-1,-1,-1,-1,200,202,-1,204,-1,-1,206,208,210,212,214,216,218,-1,220,-1,-1,-1,222,224,226,-1,228,-1,230,-1,232,-1,234,236,238,240,242,-1,-1,244,-1,-1,-1,-1,246,248,250,252,-1,-1,-1,254,-1,256,258,260,262,-1,264,-1,-1,-1,-1,-1,-1,-1,-1,-1,-1,-1,-1,-1,-1,-1,-1,-1,-1,-1,-1,-1,-1,-1,-1,-1,-1,-1,-1,-1,-1,-1,-1,-1,-1,-1,-1,-1,-1,-1,-1,-1,-1,-1,-1,-1,-1,-1,-1,-1,-1,-1,-1,-1,-1,-1,-1,-1],"split_conditions":[1E0,1.8045478E-1,1E0,9.9288E-2,4.541903E-1,1E0,1E0,3.940345E-2,5.429281E-1,2.459533E0,-9.425376E-2,1.357537E-1,1.6292356E-1,9.781247E-1,8.4008914E-1,1E0,1.6270185E0,1.12959936E-1,2.3637266E0,4.5624148E-2,5.710751E0,-2.6910886E-1,2.809471E-1,1E0,1.9443735E0,-3.3550575E-1,1.3232136E0,-2.3589115E-1,6.800683E-1,5.710751E0,1.8889E0,1.043244E0,1.982711E-2,2.7680933E-1,-1.584466E-1,7.609104E-1,-1.5876915E-1,3.5696474E-1,5.9271313E-2,1.3878624E0,1.0818031E-1,1.982711E-2,-1.15832545E-1,1.1875856E-2,-1.7135684E0,1E0,1E0,-1.1614263E0,-0E0,-5.9611686E-2,7.059454E-2,-1.7792767E-1,1.8790764E0,-3.3550575E-1,-8.809562E-2,1.0850368E0,4.9282975E-2,1.3172057E0,3.5533597E0,3.632022E0,-1.5256384E-1,2.248183E0,2.5033622E0,-1.2294028E-1,1.8790764E0,1.0368893E0,-7.428717E-2,7.32194E-1,-7.428717E-2,-5.4026634E-1,9.308439E-2,-3.3550575E-1,-1.2994618E0,-5.1120788E-2,1.1161603E0,2.0824091E0,8.724658E-2,6.526893E-2,2.343934E-2,1.7153579E0,1E0,1.9914672E-1,-1.859653E-2,-5.4026634E-1,-3.2152627E-2,1.6355222E-1,-1.0635678E-1,1E0,-8.853552E-1,1.4148329E-1,5.4130048E-2,2.1892917E-1,-1.2711257E-1,8.4008914E-1,3.8474377E-2,9.1216344E-1,9.1216344E-1,2.8575573E0,-1.4674248E-1,9.781247E-1,2.6144856E-1,1.9914672E-1,-2.836365E-1,4.3207448E-2,-5.1150393E-2,-5.9611686E-2,1.2152325E-1,-8.853552E-1,-4.7124857E-1,8.06645E-2,1.982711E-2,-1.5755329E0,-6.783019E-1,7.364732E-2,1.3232136E0,-0E0,3.785619E-2,1.2138184E-1,3.5377707E-2,-1.0902309E-1,2.3140054E0,1.5992846E0,-6.70263E-2,1E0,8.2899886E-1,1.1811719E-1,-1.9273063E-2,1.53199E-1,3.583058E-1,1.287304E-1,-1.43151E-2,2.343934E-2,1.8368907E-17,-4.8974976E-2,-1.5048276E-1,3.143589E-2,-6.980812E-2,-2.4595673E-1,-7.6995365E-2,1.7380959E0,7.32194E-1,1.3142161E-1,-2.8564608E-1,3.605694E-1,7.057401E-2,6.244208E-1,1E0,-2.7867216E-1,-1.5420823E-1,-1.3123256E-1,-3.8088854E-2,-9.554803E-2,3.5619568E-2,-1.9206218E0,-6.783019E-1,-1.5430683E-2,-3.33213E-1,3.6003582E-2,-8.2350954E-2,-1.0924085E0,7.020536E-1,1.2541958E0,1.5992846E0,-1.9206218E0,7.938173E-2,1E0,1.5042548E-1,-9.54373E-1,4.5969088E-2,1.127061E-1,-0E0,-2.6520926E-1,-1.3222378E-1,-1.2768371E-1,1.195166E-1,2.3513827E-1,1.3975398E-1,1.3232136E0,-0E0,7.020536E-1,-8.7928705E-2,1E0,-2.3438068E-1,1E0,5.708261E-1,3.4913284E-1,9.944534E-2,3.5377707E-2,-1.0635678E-1,-1.844386E-2,9.682606E-2,1.008792E-2,-1.2332554E-1,1E0,-2.7284002E-1,-2.836365E-1,1.806338E0,-9.5414035E-2,3.4644004E-2,1.150699E-1,-1.7135684E0,9.983874E-2,-6.092841E-1,-4.022308E-1,-5.714192E-2,-1.1614263E0,6.7936406E-2,-2.8564608E-1,8.4572986E-2,-2.9015332E-2,6.1320048E-2,-3.929203E-2,1.3323808E-3,1.00556925E-1,3.5547953E-2,-5.195654E-2,5.1849324E-2,3.013051E-2,1.287853E-1,1.4417209E-2,-7.194033E-2,3.9960905E-3,-7.106867E-2,-9.576753E-2,-3.6854964E-2,-2.8017059E-2,7.514796E-2,2.920225E-2,1.1271017E-1,-1.22105934E-1,-6.741082E-2,-1.6102364E-2,8.209008E-2,-1.4623567E-1,-9.54175E-2,-8.3071515E-3,-1.0801941E-1,-1.03229165E-1,-1.8066712E-2,5.08425E-2,-6.020664E-2,-3.279158E-2,3.775685E-2,-1.2260663E-1,-0E0,-5.228482E-2,-1.2990206E-1,-8.82066E-2,2.1729894E-2,6.8741234E-4,-1.1428157E-1,-3.5156857E-2,1.18150495E-1,-1.713194E-2,5.266568E-2,2.0867059E-2,8.00337E-2,3.5768062E-2,7.784159E-2,1.4492641E-2,4.0983032E-2,5.8574688E-2,-4.7913764E-2,2.2313153E-2,9.0299636E-2],"split_indices":[0,3,8,6,4,9,11,7,4,5,6,0,0,1,1,9,4,3,6,6,5,5,3,13,1,3,1,6,4,5,7,6,0,7,0,3,0,1,0,3,0,0,0,1,1,13,12,1,0,0,0,7,5,3,6,7,0,7,7,5,0,4,7,7,5,3,0,4,0,1,0,3,1,0,1,1,0,0,2,5,10,4,6,1,0,0,7,9,1,0,0,1,0,1,0,6,6,4,0,1,3,4,4,0,0,0,0,1,1,0,0,1,1,0,1,0,0,0,0,3,5,1,3,13,4,0,0,0,0,0,0,2,6,0,0,0,0,5,4,4,4,0,5,6,0,3,10,4,0,0,0,0,0,1,1,0,1,0,0,1,1,1,1,1,4,10,0,1,0,0,0,7,4,6,0,4,0,1,0,1,0,11,5,12,6,6,0,0,7,0,0,0,0,13,6,4,1,0,0,0,1,0,1,1,1,1,0,5,0,0,0,0,0,0,0,0,0,0,0,0,0,0,0,0,0,0,0,0,0,0,0,0,0,0,0,0,0,0,0,0,0,0,0,0,0,0,0,0,0,0,0,0,0,0,0,0,0,0,0,0,0,0,0,0,0],"split_type":[0,0,0,0,0,0,0,0,0,0,0,0,0,0,0,0,0,0,0,0,0,0,0,0,0,0,0,0,0,0,0,0,0,0,0,0,0,0,0,0,0,0,0,0,0,0,0,0,0,0,0,0,0,0,0,0,0,0,0,0,0,0,0,0,0,0,0,0,0,0,0,0,0,0,0,0,0,0,0,0,0,0,0,0,0,0,0,0,0,0,0,0,0,0,0,0,0,0,0,0,0,0,0,0,0,0,0,0,0,0,0,0,0,0,0,0,0,0,0,0,0,0,0,0,0,0,0,0,0,0,0,0,0,0,0,0,0,0,0,0,0,0,0,0,0,0,0,0,0,0,0,0,0,0,0,0,0,0,0,0,0,0,0,0,0,0,0,0,0,0,0,0,0,0,0,0,0,0,0,0,0,0,0,0,0,0,0,0,0,0,0,0,0,0,0,0,0,0,0,0,0,0,0,0,0,0,0,0,0,0,0,0,0,0,0,0,0,0,0,0,0,0,0,0,0,0,0,0,0,0,0,0,0,0,0,0,0,0,0,0,0,0,0,0,0,0,0,0,0,0,0,0,0,0,0,0,0,0,0,0,0,0,0,0,0],"sum_hessian":[1.7107157E3,1.1217461E3,5.889697E2,8.3910767E2,2.8263837E2,3.1552304E2,2.7344666E2,6.120316E2,2.2707607E2,2.6733264E2,1.5305706E1,1.4227724E2,1.732458E2,2.3200975E2,4.143692E1,4.342273E2,1.778043E2,1.7518501E2,5.1891052E1,2.588678E2,8.4648485E0,8.894745E0,6.4109607E0,2.0782648E2,2.4183275E1,3.696249E1,4.474431E0,3.7689548E2,5.7331814E1,1.6013626E2,1.7668045E1,1.739356E2,1.2494167E0,3.8087433E1,1.3803619E1,2.3399464E2,2.487315E1,6.472497E0,1.9923518E0,5.937879E0,2.956866E0,1.2494167E0,5.1615443E0,6.74265E1,1.4039998E2,1.7709663E1,6.4736133E0,3.596249E1,1E0,1.2447603E0,3.2296705E0,3.0166434E2,7.5231155E1,2.7965164E1,2.936665E1,1.583967E2,1.7395619E0,1.27185755E1,4.9494696E0,1.1641568E2,5.751992E1,2.6239681E1,1.1847751E1,9.128712E1,1.4270753E2,3.9895205E0,2.4829764E0,3.4549026E0,2.4829764E0,5.3278156E1,1.4148341E1,2.058348E1,1.1981649E2,4.492885E0,1.3216777E1,4.493619E0,1.9799943E0,1.0631325E1,2.5331165E1,2.6711008E2,3.4554264E1,7.029534E1,4.9358153E0,2.5970675E1,1.9944898E0,2.5192255E1,4.1743946E0,1.216814E2,3.6715305E1,1.0738513E1,1.9800632E0,2.7227733E0,2.226696E0,1.1491751E2,1.4981657E0,1.68789E1,9.360781E0,7.647948E0,4.1998034E0,7.047564E1,2.0811472E1,1.4025453E2,2.453E0,2.2468562E0,1.7426643E0,1.2447603E0,2.2101424E0,3.0813128E1,2.2465029E1,1.9334064E1,1.2494167E0,1.018765E1,1.09628845E2,2.4809585E0,1.0735819E1,1E0,3.493619E0,2.3833422E1,1.4977436E0,2.4902171E2,1.8088354E1,3.1830889E1,2.7233741E0,6.1115955E1,9.179386E0,3.6882572E0,1.2475581E0,1.008664E1,1.5884033E1,2.6973097E0,1.4770846E0,1.0928085E2,1.2400545E1,1.2155671E0,3.549974E1,1.2383094E0,1.484464E0,9.04558E1,2.446171E1,1.0210343E1,6.668558E0,5.381735E0,3.979046E0,5.662164E0,1.9857835E0,5.859542E1,1.1880223E1,3.6795382E0,1.7131933E1,1.3801768E2,2.2368515E0,1.2214661E0,1.2315339E0,1.2939921E1,1.7873205E1,2.749439E0,1.971559E1,3.4873796E0,6.7002697E0,3.328872E1,7.6340126E1,3.244548E0,7.4912705E0,2.1986473E2,2.9156984E1,5.9464087E0,1.2141945E1,2.9582989E1,2.2478995E0,1.7233741E0,1E0,1.9411037E1,4.1704918E1,6.9802337E0,2.1991525E0,1.2429673E1,3.4543605E0,1.07282104E2,1.9987506E0,1.0422256E1,1.9782885E0,6.384423E1,2.6611574E1,2.1472185E1,2.989524E0,7.740531E0,2.4698124E0,1.4977436E0,5.1708145E0,1.747137E0,2.231909E0,1.4865094E0,4.175655E0,4.162648E1,1.696894E1,7.6757526E0,4.20447E0,2.4487462E0,1.2307919E0,1.7312914E0,1.1208631E1,9.661724E0,8.211482E0,5.980952E0,1.3734638E1,4.4850254E0,2.8803696E1,7.039281E1,5.9473176E0,1.9975312E0,1.2470169E0,3.492094E0,3.9991767E0,2.0343866E1,1.9952086E2,2.3677513E1,5.4794717E0,3.2462573E0,2.7001517E0,3.7454255E0,2.5837563E1,1.0212211E1,9.198827E0,2.7255074E1,1.4449844E1,4.7356696E0,2.2445638E0,1.0936307E1,1.4933658E0,9.735038E1,9.931725E0,7.1919003E0,3.2303567E0,5.482888E1,9.015348E0,1.2301884E0,2.5381386E1,1.9498962E1,1.9732227E0,1.7439041E0,1.2456199E0,3.7449043E0,3.995627E0,4.1708145E0,1E0,1.1857252E1,2.9769226E1,1.2052641E1,4.9163E0,3.2217393E0,4.4540133E0,2.9606895E0,1.243781E0,2.746902E0,8.461728E0,3.7324917E0,4.47899E0,3.4888885E0,2.4920633E0,9.492205E0,4.2424345E0,2.7398994E0,1.7451262E0,6.7407E1,2.985805E0],"tree_param":{"num_deleted":"0","num_feature":"14","num_nodes":"265","size_leaf_vector":"0"}},{"base_weights":[1.0870765E-2,-4.9397504E-1,9.754637E-1,-3.0826458E-1,-1.0454451E0,1.4066381E0,4.870437E-1,-4.0746313E-2,-1.0343554E0,-1.0971183E0,-1.3622145E-1,1.2556245E0,1.5237814E-1,4.1550472E-1,8.7170804E-1,2.969862E-1,-8.7298524E-1,-1.2051764E0,-4.4927502E-1,-1.130484E0,-8.014013E-2,4.0184933E-1,-8.368729E-1,1.5165755E-1,1.1981305E-1,7.005763E-1,3.7159812E-1,9.027261E-1,9.980874E-3,1.8438362E-1,1.4279584E0,-1.0436131E0,6.4514387E-1,-1.2164552E0,1.8731575E-2,-5.3196438E-2,-1.4854482E-1,-1.0874488E0,-1.4802887E-1,-3.2382062E-1,5.5488385E-2,6.18173E-1,-6.0971655E-2,1.8731575E-2,-1.07851945E-1,7.434961E-2,1.1984817E-2,-5.4514587E-1,4.2256406E-1,9.257949E-1,-0E0,6.317837E-1,2.6163321E-2,1.467396E-1,6.330636E-2,-1.0689478E0,2.077081E-1,1.2375908E0,-8.102464E-1,-1.104838E0,-1.4213797E-1,8.337516E-1,-4.0199864E-1,-1.1465428E0,-8.042516E-1,-5.7141926E-2,1.764972E-2,-9.294104E-2,9.630766E-1,-6.111483E-1,-7.1563213E-3,6.617E-1,3.4088543E-1,9.463109E-2,2.3312261E-2,1.4831595E0,3.1836355E-1,-1.429329E-1,5.9034383E-1,-9.521894E-1,-1.3469943E-1,7.946306E-2,-6.009801E-2,1.3187476E-1,5.0743777E-2,-2.6016006E-1,-1.19644225E-1,-1.1273588E0,3.618668E-2,2.5488967E-1,1.2852998E-1,-1.8122157E-1,-1.3722105E-1,-1.1725068E0,-6.001885E-1,-9.127845E-1,8.114197E-2,1.650027E-3,-1.7257288E-2,1.11325465E-1,3.0293396E-2,-3.8620874E-1,-8.367469E-2,4.408424E-1,7.566231E-2,3.1441832E-1,8.8711035E-1,9.667704E-1,1.6998908E-1,1.4687808E-1,1.3841258E-1,-8.674171E-3,-6.1571246E-1,3.6553228E-1,9.695377E-1,-1.0464427E0,1.5906611E-1,2.9656807E-2,-6.59402E-2,-1.2126603E0,-7.7978194E-1,5.9033006E-1,-3.9484467E-2,-5.750327E-1,5.731396E-1,-1.2147048E0,-8.0619097E-1,2.7739057E-2,-7.467319E-1,-1.7850992E-1,-9.7003216E-1,-6.6460826E-2,1.5421076E-3,7.8114204E-2,3.5020474E-1,3.691607E-1,3.4475345E-2,1.0537201E-1,1.2213053E-2,-2.871863E-1,1.4462449E-1,-1.6089985E-1,1.1244187E0,1.3184837E-1,-3.924075E-1,-1.9703303E-1,-8.967716E-1,4.5786008E-1,-4.9848163E-1,1.0938528E0,-1.0557874E-2,-1.0669652E0,-0E0,5.0011784E-1,-3.5032782E-1,-1.3052522E0,-9.53296E-1,-8.857938E-1,7.3657148E-3,8.779316E-3,1.05361044E-1,-7.278744E-2,-1.08864166E-1,7.8396213E-1,-1.8166961E-2,-1.0010418E0,-1.3464925E0,-9.6811086E-1,4.361277E-2,-9.1487515E-1,8.641544E-3,4.7464162E-2,-9.7090535E-2,-3.770092E-1,-1.0890243E0,-4.4960715E-2,4.878364E-2,1.9631922E-1,5.6203705E-1,-9.81591E-2,6.0120547E-1,8.383021E-3,-5.0405245E-2,-3.617861E-2,8.1123136E-2,1.3761307E-1,2.7439212E-2,-1.0512531E-2,4.518268E-2,-2.212262E-2,-6.979952E-2,-4.4989795E-3,-1.2106893E-1,-1.0605352E-1,-1.10117635E-2,7.372642E-2,1.4192867E-2,2.5774157E-3,-1.0916137E-1,1.1998218E-1,-9.342946E-3,-1.11209355E-1,-5.615399E-2,7.485934E-2,-2.7398119E-2,2.607355E-2,-8.342118E-2,-1.33404E-1,-6.477504E-2,-2.6631137E-2,-1.01889364E-1,-9.472172E-2,-1.6893273E-2,5.8646914E-2,-4.6911396E-2,-3.2374408E-2,7.524416E-2,-4.39313E-3,1.2232401E-1,-1.05162695E-1,-4.184218E-2,-1.0502658E-1,-1.44845E-1,-3.4886193E-2,-1.192007E-1,-1.2478266E-1,-1.3278919E-2,-9.163313E-2,6.9579296E-2,-1.1636827E-1,-2.8048867E-2,4.06864E-2,1.128671E-2,8.4618025E-2,4.0415917E-2,-3.6866155E-2,1.9089755E-3,1.9828795E-2,9.631777E-2],"categories":[],"categories_nodes":[],"categories_segments":[],"categories_sizes":[],"default_left":[0,0,0,0,0,0,0,0,0,0,0,0,0,0,0,0,0,0,0,0,0,0,0,0,0,0,0,0,0,0,0,0,0,0,0,0,0,0,0,0,0,0,0,0,0,0,0,0,0,0,0,0,0,0,0,0,0,0,0,0,0,0,0,0,0,0,0,0,0,0,0,0,0,0,0,0,0,0,0,0,0,0,0,0,0,0,0,0,0,0,0,0,0,0,0,0,0,0,0,0,0,0,0,0,0,0,0,0,0,0,0,0,0,0,0,0,0,0,0,0,0,0,0,0,0,0,0,0,0,0,0,0,0,0,0,0,0,0,0,0,0,0,0,0,0,0,0,0,0,0,0,0,0,0,0,0,0,0,0,0,0,0,0,0,0,0,0,0,0,0,0,0,0,0,0,0,0,0,0,0,0,0,0,0,0,0,0,0,0,0,0,0,0,0,0,0,0,0,0,0,0,0,0,0,0,0,0,0,0,0,0,0,0,0,0,0,0,0,0,0,0,0,0,0,0,0,0,0,0,0,0,0,0,0,0,0,0,0,0],"id":3,"left_children":[1,3,5,7,9,11,13,15,17,19,21,23,-1,25,27,29,31,33,35,37,39,41,43,-1,-1,45,47,49,-1,51,53,55,57,59,-1,61,-1,63,-1,65,-1,67,-1,-1,-1,-1,-1,69,71,73,-1,75,77,-1,-1,79,81,83,85,87,-1,89,91,93,95,-1,-1,97,99,101,-1,103,105,-1,-1,107,109,111,113,115,-1,-1,-1,-1,-1,117,-1,119,-1,121,-1,123,-1,125,127,129,-1,-1,-1,-1,-1,131,-1,133,-1,135,137,139,-1,141,-1,143,145,147,149,151,153,-1,-1,155,157,159,-1,161,163,165,167,-1,169,171,173,-1,-1,-1,175,177,179,-1,-1,181,-1,183,185,187,189,191,193,195,197,199,-1,201,-1,203,205,207,209,211,213,-1,-1,215,-1,217,-1,219,221,223,-1,225,-1,-1,-1,227,229,-1,-1,231,233,235,237,-1,-1,-1,-1,-1,-1,-1,-1,-1,-1,-1,-1,-1,-1,-1,-1,-1,-1,-1,-1,-1,-1,-1,-1,-1,-1,-1,-1,-1,-1,-1,-1,-1,-1,-1,-1,-1,-1,-1,-1,-1,-1,-1,-1,-1,-1,-1,-1,-1,-1,-1,-1,-1,-1,-1,-1,-1,-1],"loss_changes":[8.201715E2,1.1290686E2,1.2117261E2,1.608877E2,1.29166565E1,3.514038E0,7.1458893E0,1.7072401E2,2.1748383E1,8.833893E0,6.4049354E0,2.7897644E-1,0E0,2.6430511E0,9.124775E-1,5.477149E1,4.6088257E1,2.9297028E0,2.1259579E1,2.2226562E0,1.6390913E0,2.5171463E0,2.0128293E0,0E0,0E0,6.543789E-1,9.721369E0,8.3574295E-1,0E0,2.7885916E1,2.930832E-1,5.230652E0,1.6809578E1,2.3358917E0,0E0,1.2293068E1,0E0,2.9346619E0,0E0,1.0234009E0,0E0,2.1875174E0,0E0,0E0,0E0,0E0,0E0,3.0431986E-1,3.5441628E0,3.3549118E-1,0E0,2.6994846E1,2.7963858E1,0E0,0E0,3.7499847E0,2.3630905E0,1.2630081E-1,9.4382E-1,4.208252E0,0E0,2.609129E0,5.8382964E0,1.9676971E0,8.304745E0,0E0,0E0,3.5143584E-2,2.425437E-1,1.6605306E-1,0E0,6.743088E-1,1.8307152E0,0E0,0E0,1.4258423E0,1.3780043E1,1.4317736E1,5.4070683E0,1.1958641E1,0E0,0E0,0E0,0E0,0E0,1.0212333E0,0E0,2.4211426E0,0E0,1.578027E0,0E0,7.5489764E0,0E0,1.7834625E0,1.5693166E0,1.5457382E0,0E0,0E0,0E0,0E0,0E0,7.576628E-1,0E0,2.4607468E-1,0E0,2.1439257E0,6.608734E-1,6.683915E0,0E0,2.0346434E1,0E0,9.583047E0,5.6943665E0,3.7410355E0,3.396698E0,2.2316437E0,1.8552811E0,0E0,0E0,9.0208435E-1,2.1075554E0,9.4832337E-1,0E0,4.1681733E0,1.5485017E0,3.1093597E0,4.7341013E0,0E0,1.3885069E0,2.6257887E0,2.2503319E0,0E0,0E0,0E0,1.8833435E0,3.8103867E0,1.8721651E0,0E0,0E0,3.414263E-1,0E0,1.0419218E1,3.0831833E0,9.914594E0,2.337144E0,3.2316139E0,3.6927166E0,3.4532022E0,1.4989555E0,2.8918228E0,0E0,1.7001266E0,0E0,1.3984808E0,1.5381064E0,3.3126068E-1,9.553795E-1,8.174E-1,1.373385E0,0E0,0E0,2.1895862E0,0E0,2.634019E0,0E0,1.4545975E0,1.3481903E0,2.2564983E0,0E0,1.8820496E0,0E0,0E0,0E0,5.1686883E0,1.537468E0,0E0,0E0,1.0708988E0,2.1273727E0,6.5424824E-1,4.966674E-1,0E0,0E0,0E0,0E0,0E0,0E0,0E0,0E0,0E0,0E0,0E0,0E0,0E0,0E0,0E0,0E0,0E0,0E0,0E0,0E0,0E0,0E0,0E0,0E0,0E0,0E0,0E0,0E0,0E0,0E0,0E0,0E0,0E0,0E0,0E0,0E0,0E0,0E0,0E0,0E0,0E0,0E0,0E0,0E0,0E0,0E0,0E0,0E0,0E0,0E0,0E0,0E0,0E0,0E0,0E0,0E0,0E0,0E0],"parents":[2147483647,0,0,1,1,2,2,3,3,4,4,5,5,6,6,7,7,8,8,9,9,10,10,11,11,13,13,14,14,15,15,16,16,17,17,18,18,19,19,20,20,21,21,22,22,25,25,26,26,27,27,29,29,30,30,31,31,32,32,33,33,35,35,37,37,39,39,41,41,47,47,48,48,49,49,51,51,52,52,55,55,56,56,57,57,58,58,59,59,61,61,62,62,63,63,64,64,67,67,68,68,69,69,71,71,72,72,75,75,76,76,77,77,78,78,79,79,85,85,87,87,89,89,91,91,93,93,94,94,95,95,101,101,103,103,105,105,106,106,107,107,109,109,111,111,112,112,113,113,114,114,115,115,116,116,119,119,120,120,121,121,123,123,124,124,125,125,126,126,128,128,129,129,130,130,134,134,135,135,136,136,139,139,141,141,142,142,143,143,144,144,145,145,146,146,147,147,148,148,149,149,151,151,153,153,154,154,155,155,156,156,157,157,158,158,161,161,163,163,165,165,166,166,167,167,169,169,173,173,174,174,177,177,178,178,179,179,180,180],"right_children":[2,4,6,8,10,12,14,16,18,20,22,24,-1,26,28,30,32,34,36,38,40,42,44,-1,-1,46,48,50,-1,52,54,56,58,60,-1,62,-1,64,-1,66,-1,68,-1,-1,-1,-1,-1,70,72,74,-1,76,78,-1,-1,80,82,84,86,88,-1,90,92,94,96,-1,-1,98,100,102,-1,104,106,-1,-1,108,110,112,114,116,-1,-1,-1,-1,-1,118,-1,120,-1,122,-1,124,-1,126,128,130,-1,-1,-1,-1,-1,132,-1,134,-1,136,138,140,-1,142,-1,144,146,148,150,152,154,-1,-1,156,158,160,-1,162,164,166,168,-1,170,172,174,-1,-1,-1,176,178,180,-1,-1,182,-1,184,186,188,190,192,194,196,198,200,-1,202,-1,204,206,208,210,212,214,-1,-1,216,-1,218,-1,220,222,224,-1,226,-1,-1,-1,228,230,-1,-1,232,234,236,238,-1,-1,-1,-1,-1,-1,-1,-1,-1,-1,-1,-1,-1,-1,-1,-1,-1,-1,-1,-1,-1,-1,-1,-1,-1,-1,-1,-1,-1,-1,-1,-1,-1,-1,-1,-1,-1,-1,-1,-1,-1,-1,-1,-1,-1,-1,-1,-1,-1,-1,-1,-1,-1,-1,-1,-1,-1,-1],"split_conditions":[1E0,1.8045478E-1,1E0,9.9288E-2,4.541903E-1,1E0,1E0,3.940345E-2,5.429281E-1,2.459533E0,-9.425376E-2,-8.853552E-1,1.5237814E-1,-1.6445507E0,2.343934E-2,7.32194E-1,1.6270185E0,1.12959936E-1,2.3637266E0,4.5624148E-2,5.710751E0,7.0798033E-1,2.809471E-1,1.5165755E-1,1.1981305E-1,-3.3550575E-1,-1.2304441E0,-3.3550575E-1,9.980874E-3,1E0,2.343934E-2,2.8630412E0,1.8889E0,1.043244E0,1.8731575E-2,-2.4862574E-1,-1.4854482E-1,9.781247E-1,-1.4802887E-1,-2.719603E-1,5.5488385E-2,7.32194E-1,-6.0971655E-2,1.8731575E-2,-1.07851945E-1,7.434961E-2,1.1984817E-2,-1.2994618E0,-6.783019E-1,-2.8564608E-1,-0E0,-1.0924085E0,7.644676E-1,1.467396E-1,6.330636E-2,9.03491E-1,8.089363E-2,1.3172057E0,3.5533597E0,3.632022E0,-1.4213797E-1,1.9645945E0,2.5033622E0,1E0,3.054812E-3,-5.7141926E-2,1.764972E-2,1E0,8.4008914E-1,-1.4374974E0,-7.1563213E-3,-9.54373E-1,-2.8564608E-1,9.463109E-2,2.3312261E-2,1E0,3.583058E-1,-2.2885327E-1,1.1762444E0,1E0,-1.3469943E-1,7.946306E-2,-6.009801E-2,1.3187476E-1,5.0743777E-2,2.1892917E-1,-1.19644225E-1,8.4008914E-1,3.618668E-2,9.1216344E-1,1.2852998E-1,2.248183E0,-1.3722105E-1,-1.08329535E-1,-6.092841E-1,2.809471E-1,8.114197E-2,1.650027E-3,-1.7257288E-2,1.11325465E-1,3.0293396E-2,-1.5065151E0,-8.367469E-2,-1.1614263E0,7.566231E-2,9.781247E-1,1E0,1E0,1.6998908E-1,1.7153579E0,1.3841258E-1,-2.5909954E-1,-2.8233862E-1,-2.0201597E-1,-3.0454565E-2,2.343934E-2,-1.8134756E-1,2.9656807E-2,-6.59402E-2,-2.4595673E-1,-7.6995365E-2,-2.5422534E-1,-3.9484467E-2,7.643679E-1,-3.310061E-1,-3.33213E-1,6.3303584E-1,2.7739057E-2,-2.355335E-1,-2.836365E-1,1.1161603E0,-6.6460826E-2,1.5421076E-3,7.8114204E-2,-1.0924085E0,-5.714192E-2,2.2204447E0,1.0537201E-1,1.2213053E-2,-1.7825862E0,1.4462449E-1,9.427478E-2,-2.1653697E-1,-2.5633258E-1,2.1892917E-1,1.4612491E0,1E0,-2.6419523E-1,-2.6084515E-1,-9.850144E-2,-1.0557874E-2,1.3232136E0,-0E0,7.0798033E-1,5.7023203E-1,1.2362972E-2,-6.783019E-1,1E0,4.7141603E-1,8.779316E-3,1.05361044E-1,1.0471425E0,-1.08864166E-1,1.1875856E-2,-1.8166961E-2,-2.0773962E-1,7.2041345E-1,-5.6425147E-2,4.361277E-2,2.8794694E-1,8.641544E-3,4.7464162E-2,-9.7090535E-2,-2.749489E-1,1E0,-4.4960715E-2,4.878364E-2,-5.4026634E-1,1E0,1E0,1E0,8.383021E-3,-5.0405245E-2,-3.617861E-2,8.1123136E-2,1.3761307E-1,2.7439212E-2,-1.0512531E-2,4.518268E-2,-2.212262E-2,-6.979952E-2,-4.4989795E-3,-1.2106893E-1,-1.0605352E-1,-1.10117635E-2,7.372642E-2,1.4192867E-2,2.5774157E-3,-1.0916137E-1,1.1998218E-1,-9.342946E-3,-1.11209355E-1,-5.615399E-2,7.485934E-2,-2.7398119E-2,2.607355E-2,-8.342118E-2,-1.33404E-1,-6.477504E-2,-2.6631137E-2,-1.01889364E-1,-9.472172E-2,-1.6893273E-2,5.8646914E-2,-4.6911396E-2,-3.2374408E-2,7.524416E-2,-4.39313E-3,1.2232401E-1,-1.05162695E-1,-4.184218E-2,-1.0502658E-1,-1.44845E-1,-3.4886193E-2,-1.192007E-1,-1.2478266E-1,-1.3278919E-2,-9.163313E-2,6.9579296E-2,-1.1636827E-1,-2.8048867E-2,4.06864E-2,1.128671E-2,8.4618025E-2,4.0415917E-2,-3.6866155E-2,1.9089755E-3,1.9828795E-2,9.631777E-2],"split_indices":[0,3,8,6,4,9,11,7,4,5,6,1,0,1,2,4,4,3,6,6,5,7,3,0,0,3,1,3,0,8,2,5,7,6,0,7,0,1,0,6,0,4,0,0,0,0,0,1,1,5,0,1,5,0,0,7,1,7,7,5,0,4,7,12,4,0,0,8,1,1,0,1,5,0,0,10,0,6,5,9,0,0,0,0,0,1,0,1,0,6,0,4,0,6,1,3,0,0,0,0,0,1,0,1,0,1,12,9,0,5,0,7,5,3,4,2,6,0,0,5,4,5,0,6,3,1,1,0,7,4,1,0,0,0,1,1,1,0,0,1,0,4,6,4,1,1,11,1,7,7,0,1,0,7,4,4,1,12,6,0,0,1,0,1,0,6,3,6,0,1,0,0,0,4,11,0,0,1,13,13,12,0,0,0,0,0,0,0,0,0,0,0,0,0,0,0,0,0,0,0,0,0,0,0,0,0,0,0,0,0,0,0,0,0,0,0,0,0,0,0,0,0,0,0,0,0,0,0,0,0,0,0,0,0,0,0,0,0,0],"split_type":[0,0,0,0,0,0,0,0,0,0,0,0,0,0,0,0,0,0,0,0,0,0,0,0,0,0,0,0,0,0,0,0,0,0,0,0,0,0,0,0,0,0,0,0,0,0,0,0,0,0,0,0,0,0,0,0,0,0,0,0,0,0,0,0,0,0,0,0,0,0,0,0,0,0,0,0,0,0,0,0,0,0,0,0,0,0,0,0,0,0,0,0,0,0,0,0,0,0,0,0,0,0,0,0,0,0,0,0,0,0,0,0,0,0,0,0,0,0,0,0,0,0,0,0,0,0,0,0,0,0,0,0,0,0,0,0,0,0,0,0,0,0,0,0,0,0,0,0,0,0,0,0,0,0,0,0,0,0,0,0,0,0,0,0,0,0,0,0,0,0,0,0,0,0,0,0,0,0,0,0,0,0,0,0,0,0,0,0,0,0,0,0,0,0,0,0,0,0,0,0,0,0,0,0,0,0,0,0,0,0,0,0,0,0,0,0,0,0,0,0,0,0,0,0,0,0,0,0,0,0,0,0,0,0,0,0,0,0,0],"sum_hessian":[1.6822423E3,1.1046052E3,5.7763715E2,8.274994E2,2.771058E2,3.0579926E2,2.718379E2,6.054761E2,2.2202332E2,2.6200864E2,1.5097182E1,1.3870644E2,1.6709282E2,2.3096393E2,4.0873962E1,4.3115244E2,1.7432367E2,1.7102943E2,5.0993874E1,2.5357745E2,8.431178E0,8.780552E0,6.316631E0,2.0460983E1,1.18245445E2,2.882919E1,2.0213475E2,3.9131992E1,1.7419708E0,3.9317038E2,3.798205E1,1.5699142E2,1.7332245E1,1.6978069E2,1.248759E0,3.7652496E1,1.3341378E1,2.2945694E2,2.4120516E1,6.4472227E0,1.9839554E0,7.5540175E0,1.2265341E0,1.248759E0,5.0678716E0,2.6584152E1,2.2450361E0,1.0135072E1,1.9199968E2,3.8131992E1,1E0,1.0193509E2,2.912353E2,3.538066E1,2.6013904E0,1.5401884E2,2.972578E0,1.2424317E1,4.907928E0,1.14051254E2,5.5729424E1,1.023534E1,2.7417156E1,1.8732068E2,4.213625E1,4.2177963E0,2.2294264E0,2.705798E0,4.84822E0,8.640395E0,1.4946764E0,4.7074696E1,1.4492497E2,3.6679424E1,1.4525671E0,2.6424177E1,7.551091E1,2.2464986E2,6.658542E1,1.1158584E2,4.2433006E1,1.7325367E0,1.2400415E0,1.0456005E1,1.9683127E0,2.7147553E0,2.1931725E0,1.1255439E2,1.4968691E0,5.170938E0,5.064402E0,2.3301546E1,4.1156096E0,1.7772859E2,9.592099E0,3.989157E1,2.2446773E0,1.4734998E0,1.232298E0,3.390515E0,1.4577047E0,5.684466E0,2.9559298E0,1.5847193E1,3.1227505E1,1.3973003E2,5.194943E0,9.426071E0,1.6998106E1,6.602503E1,9.485881E0,1.7575714E2,4.8892715E1,4.303523E1,2.3550194E1,1.0291521E2,8.670632E0,1.2411666E0,1.4735887E0,8.837634E1,2.4178043E1,3.4705927E0,1.7003453E0,1.5465545E1,7.836002E0,1.5729309E2,2.0435501E1,1.2447844E0,8.347315E0,3.183052E0,3.670852E1,2.9705667E0,2.713899E0,1.7307584E0,1.4116435E1,1.16608696E2,2.312134E1,3.9559119E0,1.2390312E0,2.7182207E0,6.7078505E0,5.0850266E1,1.5174763E1,1.2912733E2,4.6629814E1,2.032164E1,2.8571075E1,3.9305187E1,3.7300413E0,2.1093712E1,2.456481E0,1.0091645E2,1.9987506E0,5.204382E0,3.466251E0,6.2154846E1,2.6221498E1,2.119783E1,2.9802127E0,2.235341E0,1.2352517E0,8.396518E0,7.069027E0,6.0950084E0,1.7409934E0,6.328582E1,9.400726E1,1.8274395E1,2.1611047E0,6.863957E0,1.483358E0,1.964647E0,1.218405E0,6.831354E0,2.9877167E1,1.7397239E0,1.2376711E1,6.2562588E1,5.4046104E1,1.9406376E1,3.714965E0,1.2290311E0,1.4891895E0,4.2662174E1,8.188091E0,1.1230294E1,3.9444687E0,7.457161E1,5.4555725E1,3.09926E1,1.5637215E1,1.8579235E1,1.7424061E0,2.3359911E1,5.2111645E0,2.0150671E1,1.9154516E1,2.487735E0,1.2423061E0,1.9355597E1,1.7381159E0,9.154249E1,9.373961E0,3.9647105E0,1.2396715E0,1.7356193E0,1.7306316E0,5.856186E1,3.5929868E0,2.7265794E0,2.3494919E1,1.9228886E1,1.9689438E0,1.2410403E0,1.7391723E0,6.9045105E0,1.4920073E0,2.4248888E0,3.6701193E0,5.748939E1,5.79643E0,2.6964804E1,6.7042465E1,5.5320535E0,1.2742342E1,4.396681E0,2.467276E0,4.6430426E0,2.188311E0,2.6949467E1,2.9277E0,1.6658573E1,4.5904015E1,1.7746626E1,3.6299477E1,5.219744E0,1.4186631E1,2.4905214E0,1.2244437E0],"tree_param":{"num_deleted":"0","num_feature":"14","num_nodes":"239","size_leaf_vector":"0"}},{"base_weights":[9.982409E-3,-4.546537E-1,9.0212804E-1,-2.828304E-1,-9.686778E-1,1.3198489E0,4.4375396E-1,-3.65861E-2,-9.609563E-1,-1.0171461E0,-1.2576641E-1,1.1693388E0,1.4384843E-1,3.7811378E-1,8.0014646E-1,2.7132875E-1,-8.0770093E-1,-1.1221969E0,-4.1403857E-1,-1.0489084E0,-7.0664145E-2,2.8274205E-1,-9.405696E-1,1.3163217E0,1.0777898E0,6.395818E-1,3.3801994E-1,8.658194E-1,2.0565484E-1,1.4148352E-1,1.1403168E0,-9.656404E-1,5.966304E-1,-1.0075847E0,-1.3383162E-1,-4.5865793E-2,-1.4045495E-1,-1.0073122E0,-1.3924216E-1,-2.975073E-1,5.199952E-2,4.9444053E-1,-6.8649285E-2,-3.0119813E-3,-1.256728E-1,6.073743E-1,1.3824384E-1,8.9367956E-1,1.19134806E-1,6.788828E-2,1.1158342E-2,-5.069262E-1,3.850318E-1,5.1740218E-2,9.83611E-1,-6.072985E-2,5.942846E-2,2.3492964E-1,-4.7309855E-1,8.6497325E-1,1.373884E0,-9.843989E-1,4.395065E-2,1.1599481E0,-7.6360595E-1,-1.0286735E0,3.404913E-2,7.7914363E-1,-3.696534E-1,-1.0634636E0,-7.404798E-1,2.5418952E-2,-6.763214E-2,1.584652E-2,1.1723951E-1,7.136287E-2,2.040281E-2,9.749555E-2,1.6002319E-3,-5.684501E-1,-6.725803E-3,6.045706E-1,3.1047854E-1,1.0223056E0,-0E0,1.6742723E-1,1.1054568E0,2.7220158E-2,-6.9112843E-1,9.683708E-1,-3.3082575E-2,1.4556551E-1,7.009364E-1,-8.8967854E-1,-1.3291636E0,1.2374097E-1,4.760681E-2,-7.9656895E-3,-1.031816E-1,-1.1138842E0,-6.900051E-1,2.4235845E-1,1.2037091E0,-1.382859E-1,-1.2036935E-1,-9.011449E-1,-1.1582054E0,-8.4292084E-1,7.548562E-2,4.250286E-2,-4.5838367E-2,3.1119347E-1,-6.40853E-2,-3.581464E-1,-7.811289E-2,4.0391034E-1,6.910679E-2,2.8575146E-1,8.2475096E-1,1.0520604E0,3.27052E-2,1.0500322E-1,9.3088895E-1,1.2752144E0,2.682707E-2,-1.9038177E-1,8.063188E-1,-8.653431E-1,1.6843542E-1,1.2072619E0,5.153883E-1,1.1357842E-1,-2.1541083E-2,-9.9585897E-1,-6.828414E-2,-3.990524E-2,-1.3523786E-1,-1.2099693E0,-8.5323197E-1,3.0219702E-2,-7.5428206E-1,5.584022E-1,-3.712547E-2,3.9185237E-2,1.3196056E-1,-3.7568134E-1,1.0485154E-1,-1.0184581E0,-5.168416E-1,-1.2127167E0,-5.2296597E-1,-8.8246715E-1,3.3679758E-3,-1.4358665E-1,8.189099E-2,-6.173237E-2,1.4292409E-3,7.363616E-2,3.1707746E-1,4.390205E-1,1.9724669E-1,9.801832E-2,1.1544882E-2,1.1791801E-1,6.2581694E-1,6.47199E-1,4.5833774E-3,1.2423161E0,5.1712203E-1,7.91156E-1,1.437202E-1,-2.9742232E-2,3.6959246E-2,5.9171475E-2,-8.4844194E-2,1.375674E-2,1.0837304E-1,-1.0739064E0,-4.5788065E-1,8.608083E-1,-5.1567024E-1,1.2781125E-1,3.742762E-2,-3.0837995E-1,9.011776E-2,-1.014544E0,-0E0,5.8503956E-1,-3.4930083E-1,-1.2365257E0,-6.0406864E-1,-1.10945985E-1,-9.403649E-1,-8.6336195E-1,9.619184E-3,8.175333E-3,1.0004063E-1,-1.21247225E-1,-1.1593654E-1,-6.385317E-1,-1.1556432E0,-8.454161E-1,4.2606205E-2,-9.785783E-1,-1.3284826E0,-7.9342854E-1,2.8575039E-2,-7.098296E-1,-1.351103E-1,-6.549895E-2,3.7336033E-2,-4.2216685E-2,4.4504132E-2,5.045866E-1,-1.0128746E-2,2.4816754E-1,-6.686201E-2,5.2055116E-3,1.0452997E-1,2.6635537E-2,1.5374283E-1,-1.2633941E-2,3.8274337E-2,5.1502105E-2,1.3937122E-1,1.971535E-2,1.167223E-1,1.0442126E-1,-1.204342E-2,-3.0108219E-2,8.087405E-2,-1.1956979E-1,-3.7126612E-2,-9.4239805E-3,-1.0802189E-1,1.4196684E-2,1.15741156E-1,-8.881154E-2,1.7191656E-2,-6.828033E-2,2.3072015E-2,-1.0540267E-1,-5.6647647E-2,-3.3880588E-2,1.3090734E-1,3.6593553E-2,-7.166045E-2,-1.29629E-1,-7.995417E-2,2.8902099E-2,-1.1018896E-1,5.0016344E-2,-6.7796044E-2,-2.2977341E-3,-9.880078E-2,-3.7679266E-2,-9.863658E-2,4.599388E-2,-5.4566283E-2,1.8167231E-2,-9.647833E-2,-1.1775459E-1,-3.5419177E-2,-1.18905835E-1,-1.7275086E-2,-9.432685E-2,2.2300219E-3,-4.5074318E-2,8.2385674E-2,-7.9601616E-2,-1.3693705E-1,-1.3479538E-1,-5.1405158E-2,-2.0659335E-2,-9.89444E-2,-1.8453447E-2,-9.243953E-2,3.297096E-2,8.36119E-2,-5.5919297E-2,8.91633E-2,1.738084E-2,7.8018546E-2,-4.8446916E-2,2.1627077E-3,3.7719756E-2,-4.9044397E-2],"categories":[],"categories_nodes":[],"categories_segments":[],"categories_sizes":[],"default_left":[0,0,0,0,0,0,0,0,0,0,0,0,0,0,0,0,0,0,0,0,0,0,0,0,0,0,0,0,0,0,0,0,0,0,0,0,0,0,0,0,0,0,0,0,0,0,0,0,0,0,0,0,0,0,0,0,0,0,0,0,0,0,0,0,0,0,0,0,0,0,0,0,0,0,0,0,0,0,0,0,0,0,0,0,0,0,0,0,0,0,0,0,0,0,0,0,0,0,0,0,0,0,0,0,0,0,0,0,0,0,0,0,0,0,0,0,0,0,0,0,0,0,0,0,0,0,0,0,0,0,0,0,0,0,0,0,0,0,0,0,0,0,0,0,0,0,0,0,0,0,0,0,0,0,0,0,0,0,0,0,0,0,0,0,0,0,0,0,0,0,0,0,0,0,0,0,0,0,0,0,0,0,0,0,0,0,0,0,0,0,0,0,0,0,0,0,0,0,0,0,0,0,0,0,0,0,0,0,0,0,0,0,0,0,0,0,0,0,0,0,0,0,0,0,0,0,0,0,0,0,0,0,0,0,0,0,0,0,0,0,0,0,0,0,0,0,0,0,0,0,0,0,0,0,0,0,0,0,0,0,0,0,0,0,0,0,0,0,0,0,0,0,0,0,0,0,0,0,0,0,0,0,0,0,0,0,0],"id":4,"left_children":[1,3,5,7,9,11,13,15,17,19,21,23,-1,25,27,29,31,33,35,37,39,41,43,45,47,49,51,53,55,57,59,61,63,65,-1,67,-1,69,-1,71,-1,73,-1,-1,-1,75,-1,77,-1,-1,-1,79,81,-1,83,-1,-1,85,87,89,91,93,-1,95,97,99,-1,101,103,105,107,109,-1,111,-1,-1,-1,-1,-1,113,-1,115,117,119,-1,121,123,125,127,129,-1,-1,131,133,135,-1,-1,-1,-1,137,139,141,143,145,-1,147,149,151,-1,-1,-1,153,-1,155,-1,157,-1,159,161,163,-1,165,167,169,171,173,175,177,179,181,183,-1,-1,185,187,-1,-1,189,191,-1,193,195,-1,-1,-1,197,-1,199,201,203,205,207,-1,209,-1,-1,-1,-1,211,213,215,-1,-1,-1,217,219,221,223,225,227,-1,-1,-1,229,-1,-1,-1,231,233,235,237,-1,-1,239,-1,241,-1,243,245,247,249,251,253,255,257,-1,-1,-1,259,261,263,265,267,269,271,273,-1,275,-1,-1,-1,-1,-1,277,279,281,283,285,-1,-1,-1,-1,-1,-1,-1,-1,-1,-1,-1,-1,-1,-1,-1,-1,-1,-1,-1,-1,-1,-1,-1,-1,-1,-1,-1,-1,-1,-1,-1,-1,-1,-1,-1,-1,-1,-1,-1,-1,-1,-1,-1,-1,-1,-1,-1,-1,-1,-1,-1,-1,-1,-1,-1,-1,-1,-1,-1,-1,-1,-1,-1,-1,-1,-1,-1,-1,-1],"loss_changes":[6.841407E2,9.5576416E1,1.0763321E2,1.3601971E2,1.0962875E1,3.5890503E0,6.0368958E0,1.4238864E2,1.8672424E1,7.638977E0,5.559039E0,4.0412903E-1,0E0,2.202694E0,1.4325027E0,4.820478E1,3.8529724E1,2.7884674E0,1.85326E1,2.1434326E0,1.4145421E0,2.670487E0,1.5572324E0,1.3855896E0,7.9589844E-1,5.3757286E-1,8.22632E0,1.0028801E0,2.0717938E0,2.1593945E1,2.386139E0,4.497101E0,1.4614822E1,3.5679855E0,0E0,1.0495147E1,0E0,2.5833588E0,0E0,9.2605764E-1,0E0,3.1954017E0,0E0,0E0,0E0,1.044023E-1,0E0,2.6916752E0,0E0,0E0,0E0,2.6169634E-1,2.9563484E0,0E0,1.0055504E0,0E0,0E0,1.8934282E1,5.4404736E0,3.808197E0,5.4094315E-1,3.7967834E0,0E0,1.0313606E-1,9.909744E-1,2.4545364E0,0E0,2.236012E0,5.2597113E0,1.7793121E0,7.1320953E0,1.1565529E0,0E0,1.5222296E0,0E0,0E0,0E0,0E0,0E0,1.4929152E-1,0E0,5.4774475E-1,1.6139688E0,1.8178368E-1,0E0,1.4348941E1,4.220337E0,2.8740582E0,5.3351765E0,2.2149963E0,0E0,0E0,2.238127E0,1.06280365E1,1.2620544E-1,0E0,0E0,0E0,0E0,1.1617508E0,1.8274431E0,1.4000587E0,4.1902542E-2,6.9141245E0,0E0,2.726982E0,3.258255E0,1.4218864E0,0E0,0E0,0E0,1.3592517E0,0E0,6.526583E-1,0E0,2.5024676E-1,0E0,1.8167171E0,5.6405306E-1,5.584259E-1,0E0,1.5315516E1,2.2935753E0,4.3544006E-1,5.7461685E-1,2.2430124E0,5.3631353E-1,1.970808E0,3.6065314E0,4.9075127E-1,3.7094285E0,0E0,0E0,2.0194244E0,2.9788697E0,0E0,0E0,2.4455261E-1,1.6412239E0,0E0,1.9948254E0,8.5761976E-1,0E0,0E0,0E0,4.2110834E0,0E0,2.0898933E0,3.5115113E0,1.4855194E0,2.554406E0,2.1527023E0,0E0,1.2193941E0,0E0,0E0,0E0,0E0,1.6108727E0,1.4936571E0,1.2372372E0,0E0,0E0,0E0,1.9801772E0,1.4493935E1,1.1850865E1,6.351242E-1,2.1615486E0,1.7989049E0,0E0,0E0,0E0,3.1102355E0,0E0,0E0,0E0,1.1326599E0,2.512928E0,6.230979E-1,1.1729273E0,0E0,0E0,1.0030903E0,0E0,1.2874832E0,0E0,3.7338533E0,3.2027597E0,4.8031616E-1,2.3380532E0,1.7143776E0,1.0271225E0,8.775568E-1,1.2431489E0,0E0,0E0,0E0,4.3143635E0,2.1314301E0,1.0632324E0,1.0364723E0,3.4346433E0,1.6065636E0,3.532257E-1,7.433839E-1,0E0,3.23493E0,0E0,0E0,0E0,0E0,0E0,2.2827234E0,4.1719866E0,2.8830462E0,5.8173007E-1,9.3746275E-1,0E0,0E0,0E0,0E0,0E0,0E0,0E0,0E0,0E0,0E0,0E0,0E0,0E0,0E0,0E0,0E0,0E0,0E0,0E0,0E0,0E0,0E0,0E0,0E0,0E0,0E0,0E0,0E0,0E0,0E0,0E0,0E0,0E0,0E0,0E0,0E0,0E0,0E0,0E0,0E0,0E0,0E0,0E0,0E0,0E0,0E0,0E0,0E0,0E0,0E0,0E0,0E0,0E0,0E0,0E0,0E0,0E0,0E0,0E0,0E0,0E0,0E0,0E0,0E0,0E0,0E0,0E0,0E0,0E0],"parents":[2147483647,0,0,1,1,2,2,3,3,4,4,5,5,6,6,7,7,8,8,9,9,10,10,11,11,13,13,14,14,15,15,16,16,17,17,18,18,19,19,20,20,21,21,22,22,23,23,24,24,25,25,26,26,27,27,28,28,29,29,30,30,31,31,32,32,33,33,35,35,37,37,39,39,41,41,45,45,47,47,51,51,52,52,54,54,57,57,58,58,59,59,60,60,61,61,63,63,64,64,65,65,67,67,68,68,69,69,70,70,71,71,73,73,79,79,81,81,82,82,83,83,85,85,86,86,87,87,88,88,89,89,92,92,93,93,94,94,99,99,100,100,101,101,102,102,103,103,105,105,106,106,107,107,111,111,113,113,115,115,117,117,118,118,119,119,121,121,122,122,123,123,124,124,125,125,126,126,127,127,128,128,129,129,130,130,133,133,134,134,137,137,138,138,140,140,141,141,145,145,147,147,148,148,149,149,150,150,151,151,153,153,158,158,159,159,160,160,164,164,165,165,166,166,167,167,168,168,169,169,173,173,177,177,178,178,179,179,180,180,183,183,185,185,187,187,188,188,189,189,190,190,191,191,192,192,193,193,194,194,198,198,199,199,200,200,201,201,202,202,203,203,204,204,205,205,207,207,213,213,214,214,215,215,216,216,217,217],"right_children":[2,4,6,8,10,12,14,16,18,20,22,24,-1,26,28,30,32,34,36,38,40,42,44,46,48,50,52,54,56,58,60,62,64,66,-1,68,-1,70,-1,72,-1,74,-1,-1,-1,76,-1,78,-1,-1,-1,80,82,-1,84,-1,-1,86,88,90,92,94,-1,96,98,100,-1,102,104,106,108,110,-1,112,-1,-1,-1,-1,-1,114,-1,116,118,120,-1,122,124,126,128,130,-1,-1,132,134,136,-1,-1,-1,-1,138,140,142,144,146,-1,148,150,152,-1,-1,-1,154,-1,156,-1,158,-1,160,162,164,-1,166,168,170,172,174,176,178,180,182,184,-1,-1,186,188,-1,-1,190,192,-1,194,196,-1,-1,-1,198,-1,200,202,204,206,208,-1,210,-1,-1,-1,-1,212,214,216,-1,-1,-1,218,220,222,224,226,228,-1,-1,-1,230,-1,-1,-1,232,234,236,238,-1,-1,240,-1,242,-1,244,246,248,250,252,254,256,258,-1,-1,-1,260,262,264,266,268,270,272,274,-1,276,-1,-1,-1,-1,-1,278,280,282,284,286,-1,-1,-1,-1,-1,-1,-1,-1,-1,-1,-1,-1,-1,-1,-1,-1,-1,-1,-1,-1,-1,-1,-1,-1,-1,-1,-1,-1,-1,-1,-1,-1,-1,-1,-1,-1,-1,-1,-1,-1,-1,-1,-1,-1,-1,-1,-1,-1,-1,-1,-1,-1,-1,-1,-1,-1,-1,-1,-1,-1,-1,-1,-1,-1,-1,-1,-1,-1,-1],"split_conditions":[1E0,1.8045478E-1,1E0,9.9288E-2,4.541903E-1,1E0,1E0,3.940345E-2,5.429281E-1,2.459533E0,2.3229572E-1,-4.022308E-1,1.4384843E-1,-1.6445507E0,8.4008914E-1,1E0,1.6270185E0,1.043244E0,2.3637266E0,4.5624148E-2,5.710751E0,4.9680886E0,-1.4351894E-1,1E0,2.1892917E-1,-3.3550575E-1,-1.2304441E0,-1.1614263E0,1.3232136E0,-1.69911E-1,6.800683E-1,5.710751E0,1.8889E0,3.632022E0,-1.3383162E-1,-2.4862574E-1,-1.4045495E-1,9.781247E-1,-1.3924216E-1,3.5696474E-1,5.199952E-2,1.6270185E0,-6.8649285E-2,-3.0119813E-3,-1.256728E-1,-6.092841E-1,1.3824384E-1,1.499114E-1,1.19134806E-1,6.788828E-2,1.1158342E-2,-1.2994618E0,-6.783019E-1,5.1740218E-2,-3.3550575E-1,-6.072985E-2,5.942846E-2,1.7153579E0,-2.8233862E-1,-3.3550575E-1,-8.809562E-2,1.244762E0,4.395065E-2,1.3172057E0,-2.6316294E-1,8.4008914E-1,3.404913E-2,1.9645945E0,1.7527407E0,7.609104E-1,3.054812E-3,1.0368893E0,-6.763214E-2,-1.859653E-2,1.1723951E-1,7.136287E-2,2.040281E-2,9.749555E-2,1.6002319E-3,-1.4374974E0,-6.725803E-3,-9.54373E-1,-2.8564608E-1,2.343934E-2,-0E0,3.244966E-1,-2.180772E-1,1.7990986E-1,9.76144E-1,1.499114E-1,-3.3082575E-2,1.4556551E-1,-1.0635678E-1,1E0,-8.853552E-1,1.2374097E-1,4.760681E-2,-7.9656895E-3,-1.031816E-1,-2.4595673E-1,1.29199E-1,9.1216344E-1,2.3476724E-1,3.5811117E0,-1.2036935E-1,6.244208E-1,-9.425376E-2,2.6345513E0,7.548562E-2,4.250286E-2,-4.5838367E-2,9.48396E-1,-6.40853E-2,-1.5065151E0,-7.811289E-2,-1.1614263E0,6.910679E-2,1E0,1E0,6.5930087E-17,3.27052E-2,-1.5755329E0,6.5930087E-17,2.3140054E0,-2.719603E-1,2.0430045E-2,-2.6419523E-1,-2.6253802E-1,-3.33213E-1,-2.573539E-1,5.640181E-1,1.1357842E-1,-2.1541083E-2,2.343934E-2,-2.622832E-1,-3.990524E-2,-1.3523786E-1,1.2362972E-2,-6.783019E-1,3.0219702E-2,-7.6995365E-2,-2.5422534E-1,-3.712547E-2,3.9185237E-2,1.3196056E-1,-1.9887525E-1,1.0485154E-1,1E0,-2.836365E-1,-3.33213E-1,4.259825E-1,-1.9887525E-1,3.3679758E-3,5.429281E-1,8.189099E-2,-6.173237E-2,1.4292409E-3,7.363616E-2,-1.0924085E0,9.781247E-1,1.1161603E0,9.801832E-2,1.1544882E-2,1.1791801E-1,2.1892917E-1,1E0,8.041569E-1,-7.4731964E-1,8.2899886E-1,-2.7308726E-1,1.437202E-1,-2.9742232E-2,3.6959246E-2,3.5696474E-1,-8.4844194E-2,1.375674E-2,1.0837304E-1,-6.70263E-2,-2.573539E-1,-7.489959E-2,-3.1750715E-1,1.2781125E-1,3.742762E-2,-2.7284002E-1,9.011776E-2,1.3232136E0,-0E0,2.1466032E-1,3.7631032E-1,1E0,-2.014937E-1,-1.1128177E-2,-2.3438068E-1,1E0,5.708261E-1,8.175333E-3,1.0004063E-1,-1.21247225E-1,-3.310061E-1,3.0194548E-1,2.343934E-2,7.2477823E-1,-2.7284002E-1,-2.7108055E-1,1E0,-2.8399235E-1,2.8575039E-2,7.384121E-1,-1.351103E-1,-6.549895E-2,3.7336033E-2,-4.2216685E-2,4.4504132E-2,1.1875856E-2,1.7373202E0,7.020536E-1,1.2541958E0,8.089363E-2,1.0452997E-1,2.6635537E-2,1.5374283E-1,-1.2633941E-2,3.8274337E-2,5.1502105E-2,1.3937122E-1,1.971535E-2,1.167223E-1,1.0442126E-1,-1.204342E-2,-3.0108219E-2,8.087405E-2,-1.1956979E-1,-3.7126612E-2,-9.4239805E-3,-1.0802189E-1,1.4196684E-2,1.15741156E-1,-8.881154E-2,1.7191656E-2,-6.828033E-2,2.3072015E-2,-1.0540267E-1,-5.6647647E-2,-3.3880588E-2,1.3090734E-1,3.6593553E-2,-7.166045E-2,-1.29629E-1,-7.995417E-2,2.8902099E-2,-1.1018896E-1,5.0016344E-2,-6.7796044E-2,-2.2977341E-3,-9.880078E-2,-3.7679266E-2,-9.863658E-2,4.599388E-2,-5.4566283E-2,1.8167231E-2,-9.647833E-2,-1.1775459E-1,-3.5419177E-2,-1.18905835E-1,-1.7275086E-2,-9.432685E-2,2.2300219E-3,-4.5074318E-2,8.2385674E-2,-7.9601616E-2,-1.3693705E-1,-1.3479538E-1,-5.1405158E-2,-2.0659335E-2,-9.89444E-2,-1.8453447E-2,-9.243953E-2,3.297096E-2,8.36119E-2,-5.5919297E-2,8.91633E-2,1.738084E-2,7.8018546E-2,-4.8446916E-2,2.1627077E-3,3.7719756E-2,-4.9044397E-2],"split_indices":[0,3,8,6,4,9,11,7,4,5,7,1,0,1,1,9,4,6,6,6,5,3,6,10,1,3,1,1,1,6,4,5,7,5,0,7,0,1,0,1,0,4,0,0,0,1,0,1,0,0,0,1,1,0,3,0,0,5,5,3,6,7,0,7,6,1,0,4,7,3,4,3,0,6,0,0,0,0,0,1,0,1,5,2,0,4,7,4,5,1,0,0,7,9,1,0,0,0,0,5,6,6,6,4,0,3,6,1,0,0,0,3,0,1,0,1,0,13,12,1,0,1,1,5,6,4,1,4,1,7,1,0,0,2,6,0,0,4,1,0,4,5,0,0,0,7,0,13,4,1,1,7,0,4,0,0,0,0,1,1,1,0,0,0,1,10,5,1,4,4,0,0,0,1,0,0,0,3,7,6,3,0,0,6,0,1,0,4,7,11,7,5,5,13,6,0,0,0,3,3,2,5,6,6,12,5,0,3,0,0,0,0,0,1,1,1,1,1,0,0,0,0,0,0,0,0,0,0,0,0,0,0,0,0,0,0,0,0,0,0,0,0,0,0,0,0,0,0,0,0,0,0,0,0,0,0,0,0,0,0,0,0,0,0,0,0,0,0,0,0,0,0,0,0,0,0,0,0,0,0,0,0,0,0,0,0,0],"split_type":[0,0,0,0,0,0,0,0,0,0,0,0,0,0,0,0,0,0,0,0,0,0,0,0,0,0,0,0,0,0,0,0,0,0,0,0,0,0,0,0,0,0,0,0,0,0,0,0,0,0,0,0,0,0,0,0,0,0,0,0,0,0,0,0,0,0,0,0,0,0,0,0,0,0,0,0,0,0,0,0,0,0,0,0,0,0,0,0,0,0,0,0,0,0,0,0,0,0,0,0,0,0,0,0,0,0,0,0,0,0,0,0,0,0,0,0,0,0,0,0,0,0,0,0,0,0,0,0,0,0,0,0,0,0,0,0,0,0,0,0,0,0,0,0,0,0,0,0,0,0,0,0,0,0,0,0,0,0,0,0,0,0,0,0,0,0,0,0,0,0,0,0,0,0,0,0,0,0,0,0,0,0,0,0,0,0,0,0,0,0,0,0,0,0,0,0,0,0,0,0,0,0,0,0,0,0,0,0,0,0,0,0,0,0,0,0,0,0,0,0,0,0,0,0,0,0,0,0,0,0,0,0,0,0,0,0,0,0,0,0,0,0,0,0,0,0,0,0,0,0,0,0,0,0,0,0,0,0,0,0,0,0,0,0,0,0,0,0,0,0,0,0,0,0,0,0,0,0,0,0,0,0,0,0,0,0,0],"sum_hessian":[1.648439E3,1.084246E3,5.64193E2,8.1377484E2,2.7047107E2,2.9420325E2,2.6998975E2,5.9776544E2,2.1600945E2,2.5556891E2,1.490217E1,1.3446597E2,1.5973727E2,2.2973775E2,4.025202E1,4.2764862E2,1.7011679E2,1.6601387E2,4.9995567E1,2.471662E2,8.402699E0,1.0360726E1,4.541444E0,4.6473667E1,8.799231E1,2.8556618E1,2.0118112E2,3.583676E1,4.41526E0,3.730673E2,5.458134E1,1.5319945E2,1.6917341E1,1.1218314E2,5.383073E1,3.721067E1,1.2784897E1,2.2397705E2,2.3189157E1,6.429687E0,1.9730127E0,8.905474E0,1.4552522E0,1.4528632E0,3.0885806E0,4.833372E0,4.1640293E1,3.695215E1,5.1040157E1,2.6312323E1,2.2442956E0,1.0087904E1,1.9109322E2,1.0416925E1,2.5419834E1,1.2460499E0,3.1692102E0,3.2436578E2,4.8701508E1,2.720899E1,2.737235E1,1.5147668E2,1.7227609E0,1.2067178E1,4.850163E0,1.106885E2,1.4946449E0,1.0091425E1,2.7119246E1,1.8257167E2,4.140538E1,3.9744775E0,2.4552095E0,5.8201685E0,3.0853052E0,3.2167158E0,1.6166565E0,3.3718838E1,3.233313E0,8.59261E0,1.4952939E0,4.6640507E1,1.4445271E2,2.4419834E1,1E0,3.021303E2,2.223546E1,1.5047281E1,3.3654224E1,2.5218596E1,1.9903948E0,2.3369568E1,4.0027833E0,1.2163838E2,2.9838303E1,1.0112375E1,1.9548025E0,1.731569E0,3.118594E0,8.660838E1,2.4080114E1,5.1504564E0,4.940968E0,2.2142572E1,4.976674E0,7.1162476E1,1.11409195E2,3.9159016E1,2.246366E0,2.243162E0,1.7313157E0,4.377526E0,1.442643E0,5.6699533E0,2.9226565E0,1.5756799E1,3.088371E1,1.3931009E2,5.1426196E0,2.2925491E1,1.4943439E0,2.8034555E2,2.1784758E1,1.9054377E1,3.1810837E0,1.2352791E1,2.6944907E0,2.797715E1,5.677076E0,1.5420882E1,9.797712E0,2.552187E0,1.4505962E0,1.0752622E2,1.4112159E1,1.1695489E0,2.8668755E1,6.0619835E1,2.598855E1,1.23985E0,2.2840263E1,3.4589095E0,1.6915472E0,1.1645219E0,3.776446E0,1.9021215E1,3.1213567E0,5.325547E1,1.7907005E1,1.0176726E2,9.641933E0,3.7462276E1,1.6967386E0,2.6874607E0,1.690065E0,2.9556334E0,2.71432E0,1.7140642E0,1.4042734E1,4.9546688E1,8.9763405E1,3.905003E0,1.2376168E0,1.6298346E1,6.627146E0,4.2957996E1,2.3738756E2,1.1286995E1,1.0497763E1,6.252984E0,1.2801393E1,1.7026736E0,1.47841E0,9.616174E0,2.736617E0,1.2286062E0,1.4658844E0,1.7423286E1,1.05538645E1,2.6931162E0,2.9839594E0,1.3719572E1,1.7013098E0,3.1889856E0,6.6087275E0,1.0552747E2,1.9987506E0,3.919053E0,1.0193106E1,5.7077347E1,3.5424871E0,2.9689913E0,2.3019558E1,1.9872417E1,2.9678469E0,2.234369E0,1.2245405E0,3.6368492E0,1.5384367E1,1.5628302E1,3.7627167E1,1.0959258E1,6.9477463E0,3.6797283E1,6.496998E1,7.2396493E0,2.402284E0,2.9214733E1,8.247542E0,1.2167379E0,1.4707228E0,1.7328707E0,1.2309864E1,4.312757E1,6.419117E0,7.5304794E1,1.4458609E1,3.0811257E0,3.5460198E0,3.0996689E1,1.1961308E1,1.7683234E2,6.055522E1,2.7031376E0,8.583858E0,7.908567E0,2.5891953E0,4.780451E0,1.4725329E0,6.8988247E0,2.7173486E0,1.4251326E1,3.1719604E0,7.388242E0,3.1656227E0,1.218537E0,1.4745792E0,1.7463648E0,1.2375946E0,1.7246182E0,1.4643674E0,9.573881E1,9.788668E0,1.9556983E0,1.9633548E0,3.4597642E0,6.7333417E0,4.848044E1,8.596906E0,1.4180094E0,2.1244776E0,1.4856775E0,1.4833139E0,1.2096387E0,2.180992E1,4.8299055E0,1.5042511E1,1.733624E0,1.2342228E0,1.1972678E1,3.4116883E0,4.3122926E0,1.13160095E1,3.6187172E1,1.4399961E0,9.770382E0,1.1888762E0,4.5178394E0,2.4299068E0,2.7150574E1,9.6467085E0,6.2813175E1,2.1568027E0,2.3269982E0,4.912651E0,9.011937E0,2.0202797E1,2.954019E1,1.3587381E1,4.225926E0,2.193191E0,6.7234276E1,8.070516E0,1.7456148E0,1.2712994E1,1.8966477E0,1.184478E0],"tree_param":{"num_deleted":"0","num_feature":"14","num_nodes":"287","size_leaf_vector":"0"}},{"base_weights":[9.36363E-3,-4.196266E-1,8.3788896E-1,-2.596592E-1,-9.0228915E-1,1.2464211E0,4.0545014E-1,-3.1918865E-2,-8.973148E-1,-9.479384E-1,-1.20469E-1,1.0951071E0,1.3679577E-1,3.4432712E-1,7.4131083E-1,2.4934454E-1,-7.496943E-1,-1.0504586E0,-3.8386777E-1,-9.8677254E-1,-2.254841E-1,2.6016304E-1,-8.852172E-1,1.3568364E-1,1.0388912E0,5.847288E-1,3.0763847E-1,7.6950824E-1,7.0511485E-3,1.299906E-1,1.0693532E0,-8.966061E-1,5.5596E-1,-9.5517606E-1,-1.3071351E-1,-4.1128024E-2,-1.3371213E-1,-9.208024E-1,-1.194422E0,5.8399506E-2,-8.1566674E-1,4.5981735E-1,-6.491097E-2,-2.8334649E-3,-1.18955635E-1,1.0507623E0,5.3232294E-1,6.2082697E-2,1.0389249E-2,-4.719836E-1,3.510473E-1,7.8987366E-1,-0E0,2.4020572E-1,-3.130319E-1,8.000723E-1,1.3049005E0,-9.196373E-1,1.911892E-1,1.0921257E0,-7.153566E-1,-9.7270435E-1,1.697657E-2,2.9860654E-1,-7.656287E-1,-8.596159E-1,-1.2178829E0,-1.2153932E0,-3.9245687E-2,-2.9743406E-1,4.188478E-1,-1.19175725E-1,1.1789969E-2,1.2810515E-2,1.0974818E-1,1.2738846E-1,9.9127996E-1,2.4405331E-3,7.3677264E-2,-5.2948785E-1,-6.3212947E-3,5.53121E-1,2.8284296E-1,8.074097E-2,2.0310504E-2,1.2615372E-1,6.435816E-1,-3.9069816E-1,6.9376594E-1,8.978838E-1,-3.0888274E-2,1.3854235E-1,6.604613E-1,-8.209909E-1,-1.2261708E0,7.3673E-2,-5.5899065E-2,1.16713084E-1,4.4692945E-2,-1.9709669E-1,-1.0977264E-1,-1.0218214E0,-6.050011E-1,-4.427983E-2,8.7932354E-1,-9.2239046E-1,5.828136E-3,-8.9046204E-1,1.5602234E-1,-1.241826E-1,-3.2645542E-2,-1.2705032E0,-8.281354E-1,4.1372895E-2,-8.826149E-2,1.5536067E-2,5.3544724E-1,2.9114577E-1,-6.0675472E-2,4.0673947E-1,1.0013757E-1,-3.3240935E-1,-7.306836E-2,3.7041926E-1,6.32167E-1,2.5968826E-1,7.6898295E-1,2.2873907E-1,-4.6930227E-1,7.885524E-1,1.4293991E-1,-5.0820845E-1,3.6760658E-1,9.9000536E-2,-2.0335084E-2,1.2775032E-1,6.084965E-1,-2.4223663E-2,1.1005586E-1,-9.0678656E-1,-4.7241066E-2,-3.7978917E-2,-1.24455966E-1,3.1691324E-2,-5.8719404E-2,-1.0578815E0,-6.689054E-1,-3.4306645E-1,-1.1415457E-1,1.7990875E-1,-9.082643E-2,1.1162009E-1,4.0632883E-1,-1.0873093E-1,-4.9355733E-3,-9.636174E-1,-5.811673E-1,1.1292764E-1,-8.080355E-2,-4.4148948E-2,-1.2864678E-1,-1.6776038E-2,-9.415647E-2,-2.4774902E-2,3.9450407E-2,6.5925494E-2,1.7173713E-2,-1.3704364E-1,7.7161975E-2,7.848828E-2,-1.6447432E-2,-5.741674E-1,1.3246527E-3,6.953043E-2,2.871656E-1,7.6317884E-2,5.2477717E-2,4.010563E-1,1.7847477E-1,9.149804E-2,1.0913626E-2,3.13311E-1,-3.816915E-1,-5.5796677E-1,1.07606225E-1,6.2609434E-1,1.3314793E-1,-1.527217E-1,6.0708666E-1,-5.353376E-1,4.6191156E-2,5.8518225E-1,-5.4141697E-2,3.7822962E-1,1.190566E-1,-9.2476565E-1,-0E0,-7.356862E-2,1.9388156E-1,-1.1859123E0,-9.136245E-1,-1.3106455E-1,-9.0941733E-1,-5.68109E-1,6.943546E-2,6.1500186E-1,-9.957951E-2,-2.3096899E-2,8.283764E-2,-8.996088E-1,-1.336163E0,-6.5201706E-1,6.3008696E-2,-6.1982114E-2,3.5140287E-2,-1.8747812E-2,-6.840768E-2,-3.9661616E-2,4.062335E-2,4.600853E-1,-4.5496207E-3,2.6485527E-2,2.5570282E-1,8.252912E-2,2.4411825E-2,-5.0404448E-2,8.1680916E-2,-8.4870785E-2,-1.1317582E-2,9.867167E-2,4.7971662E-2,-4.352358E-2,5.113336E-2,8.305501E-2,-1.1196538E-3,-4.091413E-2,-9.190979E-2,2.4003627E-2,9.516292E-2,-2.8145138E-2,5.0169926E-2,-7.747238E-2,-1.0699655E-1,9.55428E-2,-7.830135E-3,-1.21626906E-1,-2.2604069E-2,-9.896248E-2,-2.7433082E-2,-3.7605602E-2,3.4942485E-2,-4.1912723E-2,-1.10354714E-1,2.8364623E-2,-9.1263205E-2,8.54436E-3,9.1197856E-2,-6.088063E-2,7.386762E-2,-1.0220557E-1,-5.8496393E-2,-1.4312272E-1,-6.642303E-2,-7.108339E-2,3.2960083E-2,2.6602088E-2,7.1596116E-2,-5.1597293E-2,8.392784E-2,1.3962579E-2,-7.9053365E-2,3.5841E-2,-6.319915E-3],"categories":[],"categories_nodes":[],"categories_segments":[],"categories_sizes":[],"default_left":[0,0,0,0,0,0,0,0,0,0,0,0,0,0,0,0,0,0,0,0,0,0,0,0,0,0,0,0,0,0,0,0,0,0,0,0,0,0,0,0,0,0,0,0,0,0,0,0,0,0,0,0,0,0,0,0,0,0,0,0,0,0,0,0,0,0,0,0,0,0,0,0,0,0,0,0,0,0,0,0,0,0,0,0,0,0,0,0,0,0,0,0,0,0,0,0,0,0,0,0,0,0,0,0,0,0,0,0,0,0,0,0,0,0,0,0,0,0,0,0,0,0,0,0,0,0,0,0,0,0,0,0,0,0,0,0,0,0,0,0,0,0,0,0,0,0,0,0,0,0,0,0,0,0,0,0,0,0,0,0,0,0,0,0,0,0,0,0,0,0,0,0,0,0,0,0,0,0,0,0,0,0,0,0,0,0,0,0,0,0,0,0,0,0,0,0,0,0,0,0,0,0,0,0,0,0,0,0,0,0,0,0,0,0,0,0,0,0,0,0,0,0,0,0,0,0,0,0,0,0,0,0,0,0,0,0,0,0,0,0,0,0,0,0,0,0,0,0,0,0,0,0,0,0,0,0,0,0,0,0,0,0,0,0,0,0,0,0,0,0,0,0,0],"id":5,"left_children":[1,3,5,7,9,11,13,15,17,19,21,23,-1,25,27,29,31,33,35,37,39,41,43,-1,45,47,49,51,-1,53,55,57,59,61,-1,63,-1,65,67,69,71,73,-1,-1,-1,75,77,-1,-1,79,81,83,-1,85,87,89,91,93,95,97,99,101,-1,103,105,107,109,111,-1,113,115,-1,-1,117,-1,-1,119,-1,-1,121,-1,123,125,-1,-1,127,129,131,133,135,-1,-1,137,139,141,-1,-1,-1,-1,143,-1,145,147,149,151,153,-1,155,157,-1,-1,159,161,163,-1,-1,165,167,-1,169,-1,171,-1,173,175,177,179,181,183,185,187,189,191,-1,-1,-1,193,-1,-1,195,197,-1,-1,-1,-1,199,201,203,-1,205,-1,-1,207,-1,-1,209,211,-1,-1,-1,-1,-1,-1,-1,-1,-1,-1,213,-1,-1,-1,215,-1,-1,217,-1,-1,219,221,-1,-1,223,225,227,-1,229,-1,231,233,235,-1,237,-1,239,-1,241,-1,-1,243,245,247,249,251,253,-1,255,257,-1,-1,259,261,263,-1,-1,-1,-1,-1,-1,-1,265,267,269,271,-1,-1,-1,-1,-1,-1,-1,-1,-1,-1,-1,-1,-1,-1,-1,-1,-1,-1,-1,-1,-1,-1,-1,-1,-1,-1,-1,-1,-1,-1,-1,-1,-1,-1,-1,-1,-1,-1,-1,-1,-1,-1,-1,-1,-1,-1,-1,-1,-1,-1],"loss_changes":[5.733452E2,8.182666E1,9.671225E1,1.1609839E2,9.313553E0,3.6968994E0,5.263035E0,1.19350624E2,1.6141174E1,6.775833E0,4.805794E0,5.155182E-1,0E0,1.8424263E0,7.121773E-1,4.1439743E1,3.2421913E1,2.7009888E0,1.6253035E1,2.1388245E0,2.3966758E0,2.3440437E0,1.387754E0,0E0,1.140213E-1,4.43182E-1,6.969303E0,6.078148E-1,0E0,1.823869E1,2.3709679E0,3.9332657E0,1.2675567E1,2.5606232E0,0E0,9.519332E0,0E0,2.293808E0,4.2507172E-1,1.4584855E0,1.762779E0,2.7863255E0,0E0,0E0,0E0,1.756897E-1,4.5874107E-1,0E0,0E0,2.2579622E-1,2.4760818E0,2.2480202E-1,0E0,1.3649218E1,6.0997787E0,3.28257E0,4.9302673E-1,3.4395828E0,2.023237E0,9.147644E-2,9.291315E-1,1.5449066E0,0E0,5.2988434E0,1.6462936E0,5.019821E0,2.1331024E-1,5.3199768E-2,0E0,1.1900675E0,8.829808E-2,0E0,0E0,1.3471407E0,0E0,0E0,1.2429047E-1,0E0,0E0,1.3514805E-1,0E0,4.4682598E-1,1.4308386E0,0E0,0E0,1.4395671E1,4.644127E0,6.410428E0,1.7158203E0,2.04776E0,0E0,0E0,2.2231178E0,7.5427475E0,5.296707E-2,0E0,0E0,0E0,0E0,9.225714E-1,0E0,6.18515E-1,1.9363952E0,3.564893E0,6.505995E-1,1.4464045E0,0E0,2.8645859E0,6.0196795E0,0E0,0E0,7.331848E-3,5.404906E-1,5.714788E-1,0E0,0E0,4.2616963E-2,1.2083235E0,0E0,8.2318485E-1,0E0,5.633871E-1,0E0,2.5082564E-1,4.266739E-2,1.5332108E0,4.854567E-1,1.045525E1,5.3554173E0,3.629633E0,2.27995E0,1.8498573E0,2.2850037E0,0E0,0E0,0E0,1.7614694E0,0E0,0E0,1.6760864E0,2.2110913E0,0E0,0E0,0E0,0E0,6.309433E-1,1.482255E0,3.3269043E0,0E0,1.8582616E0,0E0,0E0,1.498748E0,0E0,0E0,1.6805649E0,3.1115437E0,0E0,0E0,0E0,0E0,0E0,0E0,0E0,0E0,0E0,0E0,1.0862961E0,0E0,0E0,0E0,3.9040804E-2,0E0,0E0,1.3792362E0,0E0,0E0,1.2039852E0,1.0564277E0,0E0,0E0,6.047289E0,4.050284E0,4.23339E0,0E0,1.6822472E0,0E0,2.1990361E0,8.9397025E-1,2.5150967E0,0E0,8.4789944E-1,0E0,1.2236716E0,0E0,1.3672867E0,0E0,0E0,2.1517239E0,1.0602951E0,2.060772E0,7.1925664E-1,3.3567142E-1,3.4491131E0,0E0,8.5297465E-1,4.657921E0,0E0,0E0,3.494484E0,4.9865723E-2,1.9792356E0,0E0,0E0,0E0,0E0,0E0,0E0,0E0,1.9860468E0,3.6125956E0,3.0345047E0,1.9860747E0,0E0,0E0,0E0,0E0,0E0,0E0,0E0,0E0,0E0,0E0,0E0,0E0,0E0,0E0,0E0,0E0,0E0,0E0,0E0,0E0,0E0,0E0,0E0,0E0,0E0,0E0,0E0,0E0,0E0,0E0,0E0,0E0,0E0,0E0,0E0,0E0,0E0,0E0,0E0,0E0,0E0,0E0,0E0,0E0,0E0,0E0,0E0,0E0,0E0,0E0],"parents":[2147483647,0,0,1,1,2,2,3,3,4,4,5,5,6,6,7,7,8,8,9,9,10,10,11,11,13,13,14,14,15,15,16,16,17,17,18,18,19,19,20,20,21,21,22,22,24,24,25,25,26,26,27,27,29,29,30,30,31,31,32,32,33,33,35,35,37,37,38,38,39,39,40,40,41,41,45,45,46,46,49,49,50,50,51,51,53,53,54,54,55,55,56,56,57,57,58,58,59,59,60,60,61,61,63,63,64,64,65,65,66,66,67,67,69,69,70,70,73,73,76,76,79,79,81,81,82,82,85,85,86,86,87,87,88,88,89,89,92,92,93,93,94,94,99,99,101,101,102,102,103,103,104,104,105,105,107,107,108,108,111,111,112,112,113,113,116,116,117,117,119,119,121,121,123,123,124,124,125,125,126,126,127,127,128,128,129,129,130,130,131,131,132,132,136,136,139,139,140,140,145,145,146,146,147,147,149,149,152,152,155,155,156,156,167,167,171,171,174,174,177,177,178,178,181,181,182,182,183,183,185,185,187,187,188,188,189,189,191,191,193,193,195,195,198,198,199,199,200,200,201,201,202,202,203,203,205,205,206,206,209,209,210,210,211,211,219,219,220,220,221,221,222,222],"right_children":[2,4,6,8,10,12,14,16,18,20,22,24,-1,26,28,30,32,34,36,38,40,42,44,-1,46,48,50,52,-1,54,56,58,60,62,-1,64,-1,66,68,70,72,74,-1,-1,-1,76,78,-1,-1,80,82,84,-1,86,88,90,92,94,96,98,100,102,-1,104,106,108,110,112,-1,114,116,-1,-1,118,-1,-1,120,-1,-1,122,-1,124,126,-1,-1,128,130,132,134,136,-1,-1,138,140,142,-1,-1,-1,-1,144,-1,146,148,150,152,154,-1,156,158,-1,-1,160,162,164,-1,-1,166,168,-1,170,-1,172,-1,174,176,178,180,182,184,186,188,190,192,-1,-1,-1,194,-1,-1,196,198,-1,-1,-1,-1,200,202,204,-1,206,-1,-1,208,-1,-1,210,212,-1,-1,-1,-1,-1,-1,-1,-1,-1,-1,214,-1,-1,-1,216,-1,-1,218,-1,-1,220,222,-1,-1,224,226,228,-1,230,-1,232,234,236,-1,238,-1,240,-1,242,-1,-1,244,246,248,250,252,254,-1,256,258,-1,-1,260,262,264,-1,-1,-1,-1,-1,-1,-1,266,268,270,272,-1,-1,-1,-1,-1,-1,-1,-1,-1,-1,-1,-1,-1,-1,-1,-1,-1,-1,-1,-1,-1,-1,-1,-1,-1,-1,-1,-1,-1,-1,-1,-1,-1,-1,-1,-1,-1,-1,-1,-1,-1,-1,-1,-1,-1,-1,-1,-1,-1,-1],"split_conditions":[1E0,1.8045478E-1,1E0,9.9288E-2,4.541903E-1,1E0,1E0,3.940345E-2,5.429281E-1,1.8790764E0,2.3229572E-1,-8.853552E-1,1.3679577E-1,-1.6445507E0,2.343934E-2,1E0,1.6270185E0,1.4083341E0,2.3637266E0,1.8258289E0,-2.6520926E-1,4.9680886E0,-1.4351894E-1,1.3568364E-1,1E0,-3.3550575E-1,-1.2304441E0,-3.3550575E-1,7.0511485E-3,-2.3589115E-1,6.800683E-1,2.8630412E0,1.8889E0,3.632022E0,-1.3071351E-1,2.7680933E-1,-1.3371213E-1,-1.859653E-2,8.5587166E-2,-2.7284002E-1,3.316161E0,1.6270185E0,-6.491097E-2,-2.8334649E-3,-1.18955635E-1,1E0,1E0,6.2082697E-2,1.0389249E-2,-1.2994618E0,-6.783019E-1,-2.8564608E-1,-0E0,8.802281E-1,1.8790764E0,-3.3550575E-1,-8.809562E-2,1.0850368E0,8.089363E-2,1.3172057E0,3.5533597E0,1.2541958E0,1.697657E-2,2.248183E0,5.254719E0,-7.489959E-2,9.2818606E-1,1.9558711E-1,-3.9245687E-2,5.640181E-1,2.459533E0,-1.19175725E-1,1.1789969E-2,-1.859653E-2,1.0974818E-1,1.2738846E-1,-7.4731964E-1,2.4405331E-3,7.3677264E-2,-1.4374974E0,-6.3212947E-3,-9.54373E-1,-2.8564608E-1,8.074097E-2,2.0310504E-2,-1.795177E-1,-2.573539E-1,1.9914672E-1,-1.859653E-2,-5.4026634E-1,-3.0888274E-2,1.3854235E-1,1.7380959E0,1E0,-8.853552E-1,7.3673E-2,-5.5899065E-2,1.16713084E-1,4.4692945E-2,2.1892917E-1,-1.0977264E-1,1.062861E-1,2.1514268E0,1.3370756E0,9.1216344E-1,-2.3438068E-1,5.828136E-3,9.781247E-1,-2.8399235E-1,-1.241826E-1,-3.2645542E-2,-8.853552E-1,4.0891728E-1,-2.836365E-1,-8.826149E-2,1.5536067E-2,3.0647953E0,9.48396E-1,-6.0675472E-2,-8.163374E-1,1.0013757E-1,-1.5065151E0,-7.306836E-2,-1.1614263E0,1E0,1E0,1E0,-1.7792767E-1,3.583058E-1,2.3140054E0,1.499114E-1,2.1074317E-2,1.5992846E0,9.9000536E-2,-2.0335084E-2,1.2775032E-1,3.583058E-1,-2.4223663E-2,1.1005586E-1,2.343934E-2,1.495032E-1,-3.7978917E-2,-1.24455966E-1,3.1691324E-2,-5.8719404E-2,-2.6433644E-1,3.2788488E-1,2.0133913E0,-1.1415457E-1,8.089363E-2,-9.082643E-2,1.1162009E-1,-2.8564608E-1,-1.0873093E-1,-4.9355733E-3,-1.6883588E-1,1.594319E-1,1.1292764E-1,-8.080355E-2,-4.4148948E-2,-1.2864678E-1,-1.6776038E-2,-9.415647E-2,-2.4774902E-2,3.9450407E-2,6.5925494E-2,1.7173713E-2,5.429281E-1,7.7161975E-2,7.848828E-2,-1.6447432E-2,-1.5755329E0,1.3246527E-3,6.953043E-2,-1.0924085E0,7.6317884E-2,5.2477717E-2,9.781247E-1,-1.9517747E-1,9.149804E-2,1.0913626E-2,-1.9206218E0,2.4568751E-1,-7.6995365E-2,1.07606225E-1,1E0,1.3314793E-1,1.8790764E0,1.5880213E0,-2.2069564E-1,4.6191156E-2,5.1686525E-1,-5.4141697E-2,-1.261597E-1,1.190566E-1,-2.7284002E-1,-0E0,-7.356862E-2,2.4568751E-1,1.0471425E0,-2.1251518E-1,2.8794694E-1,-3.025083E-1,1E0,6.943546E-2,3.4913284E-1,1.0471425E0,-2.3096899E-2,8.283764E-2,-2.836365E-1,-2.3589115E-1,1.666841E0,6.3008696E-2,-6.1982114E-2,3.5140287E-2,-1.8747812E-2,-6.840768E-2,-3.9661616E-2,4.062335E-2,-5.714192E-2,1.7373202E0,-2.6419523E-1,1.1161603E0,8.252912E-2,2.4411825E-2,-5.0404448E-2,8.1680916E-2,-8.4870785E-2,-1.1317582E-2,9.867167E-2,4.7971662E-2,-4.352358E-2,5.113336E-2,8.305501E-2,-1.1196538E-3,-4.091413E-2,-9.190979E-2,2.4003627E-2,9.516292E-2,-2.8145138E-2,5.0169926E-2,-7.747238E-2,-1.0699655E-1,9.55428E-2,-7.830135E-3,-1.21626906E-1,-2.2604069E-2,-9.896248E-2,-2.7433082E-2,-3.7605602E-2,3.4942485E-2,-4.1912723E-2,-1.10354714E-1,2.8364623E-2,-9.1263205E-2,8.54436E-3,9.1197856E-2,-6.088063E-2,7.386762E-2,-1.0220557E-1,-5.8496393E-2,-1.4312272E-1,-6.642303E-2,-7.108339E-2,3.2960083E-2,2.6602088E-2,7.1596116E-2,-5.1597293E-2,8.392784E-2,1.3962579E-2,-7.9053365E-2,3.5841E-2,-6.319915E-3],"split_indices":[0,3,8,6,4,9,11,7,4,5,7,1,0,1,2,9,4,6,6,3,7,3,6,0,12,3,1,3,0,6,4,5,7,5,0,7,0,6,4,6,5,4,0,0,0,13,10,0,0,1,1,5,0,5,5,3,6,7,1,7,7,1,0,4,4,6,5,5,0,1,5,0,0,6,0,0,1,0,0,1,0,1,5,0,0,3,7,4,6,1,0,0,4,9,1,0,0,0,0,1,0,5,1,6,6,5,0,1,5,0,0,1,5,4,0,0,5,3,0,1,0,1,0,1,13,13,12,7,0,5,1,7,1,0,0,0,0,0,0,2,4,0,0,0,0,7,5,1,0,1,0,0,5,0,0,4,4,0,0,0,0,0,0,0,0,0,0,4,0,0,0,1,0,0,1,0,0,1,1,0,0,1,4,4,0,13,0,5,5,7,0,4,0,1,0,6,0,0,4,1,3,1,3,13,0,6,1,0,0,4,6,3,0,0,0,0,0,0,0,1,1,1,1,0,0,0,0,0,0,0,0,0,0,0,0,0,0,0,0,0,0,0,0,0,0,0,0,0,0,0,0,0,0,0,0,0,0,0,0,0,0,0,0,0,0,0,0,0,0,0,0,0,0],"split_type":[0,0,0,0,0,0,0,0,0,0,0,0,0,0,0,0,0,0,0,0,0,0,0,0,0,0,0,0,0,0,0,0,0,0,0,0,0,0,0,0,0,0,0,0,0,0,0,0,0,0,0,0,0,0,0,0,0,0,0,0,0,0,0,0,0,0,0,0,0,0,0,0,0,0,0,0,0,0,0,0,0,0,0,0,0,0,0,0,0,0,0,0,0,0,0,0,0,0,0,0,0,0,0,0,0,0,0,0,0,0,0,0,0,0,0,0,0,0,0,0,0,0,0,0,0,0,0,0,0,0,0,0,0,0,0,0,0,0,0,0,0,0,0,0,0,0,0,0,0,0,0,0,0,0,0,0,0,0,0,0,0,0,0,0,0,0,0,0,0,0,0,0,0,0,0,0,0,0,0,0,0,0,0,0,0,0,0,0,0,0,0,0,0,0,0,0,0,0,0,0,0,0,0,0,0,0,0,0,0,0,0,0,0,0,0,0,0,0,0,0,0,0,0,0,0,0,0,0,0,0,0,0,0,0,0,0,0,0,0,0,0,0,0,0,0,0,0,0,0,0,0,0,0,0,0,0,0,0,0,0,0,0,0,0,0,0,0,0,0,0,0,0,0],"sum_hessian":[1.6111172E3,1.0618241E3,5.4929315E2,7.9866345E2,2.6316068E2,2.814862E2,2.6780695E2,5.8925836E2,2.0940509E2,2.4844206E2,1.471861E1,1.2984225E2,1.5164394E2,2.2828648E2,3.9520454E1,4.2383096E2,1.6542738E2,1.6049037E2,4.891471E1,2.3542154E2,1.3020514E1,1.026787E1,4.45074E0,1.8866718E1,1.1097554E2,2.8248861E1,2.0003761E2,3.7784992E1,1.735461E0,3.70991E2,5.283998E1,1.4897774E2,1.6449638E1,1.20485504E2,4.0004868E1,3.674595E1,1.2168762E1,1.8278517E2,5.2636375E1,9.400047E0,3.6204662E0,8.824521E0,1.4433496E0,1.4529598E0,2.99778E0,1.0738477E2,3.5907717E0,2.60054E1,2.2434626E0,1.0029791E1,1.9000783E2,3.6784992E1,1E0,2.9744934E2,7.354165E1,2.670598E1,2.6133999E1,1.460403E2,2.9374392E0,1.1669209E1,4.7804294E0,1.1877021E2,1.7152936E0,2.5415771E1,1.1330178E1,1.5479686E2,2.7988308E1,5.079264E1,1.8437353E0,4.8182783E0,4.581769E0,2.3836432E0,1.236823E0,5.787521E0,3.037E0,1.8305063E1,8.9079704E1,1.3518128E0,2.2389588E0,8.533952E0,1.4958398E0,4.615413E1,1.438537E2,3.5352432E1,1.4325618E0,2.3290863E2,6.454071E1,6.884292E1,4.6987305E0,2.47163E1,1.989681E0,2.220914E1,3.9248593E0,1.1326762E2,3.277269E1,1.7110612E0,1.226378E0,9.729216E0,1.9399933E0,2.6729717E0,2.1074574E0,1.0320534E2,1.5564876E1,1.6561014E1,8.854758E0,9.4186125E0,1.9115658E0,1.5035368E2,4.443174E0,2.6873432E1,1.1148759E0,4.2468296E1,8.324347E0,3.6400611E0,1.1782172E0,2.121074E0,2.4606953E0,4.359243E0,1.4282781E0,2.2133777E0,8.686633E1,5.6508794E0,2.883072E0,1.5655403E1,3.0498726E1,1.3877794E2,5.0757647E0,1.9920534E2,3.37033E1,4.9602295E1,1.4938417E1,5.9891647E1,8.951269E0,3.454477E0,1.2442533E0,9.214358E0,1.5501941E1,1.4337109E0,2.4911482E0,1.0180702E2,1.1460597E1,1.1573387E0,3.161535E1,1.2342597E0,1.4387121E0,9.1825294E1,1.1380045E1,1.1560553E1,4.0043235E0,1.3777711E1,2.7833023E0,4.9939246E0,3.8608336E0,7.715665E0,1.7029479E0,1.19883064E2,3.0470623E1,2.1257591E0,2.317415E0,1.3437583E0,4.1124535E1,1.5836222E0,6.7407246E0,2.1655035E0,1.4745578E0,1.229565E0,1.2311302E0,2.6829882E0,1.6762547E0,1.1066889E0,1.1066889E0,2.936172E0,2.7147076E0,1.6938335E0,1.3961569E1,1.0987606E1,1.951112E1,4.919905E1,8.957889E1,3.8395672E0,1.2361972E0,1.7539238E2,2.3812956E1,3.2478786E1,1.2245121E0,3.9835606E1,9.766686E0,9.535356E0,5.403062E0,5.869834E1,1.1933085E0,7.509996E0,1.4412732E0,1.2289867E1,3.2120733E0,9.9808266E1,1.9987506E0,2.4407535E0,9.019844E0,4.4823128E1,4.7002167E1,3.9938362E0,7.386209E0,9.87155E0,1.6890025E0,4.919237E0,8.858475E0,1.7185464E0,2.1422873E0,1.0521961E2,1.4663448E1,2.9222988E1,1.2476356E0,1.2140573E0,1.4689308E0,1.2486949E0,1.6874771E0,1.724888E0,1.2236681E1,4.283136E1,6.3676896E0,3.0633451E1,5.8945435E1,1.9580725E1,1.5581165E2,2.2132881E1,1.680073E0,1.9091423E1,1.3387364E1,9.843601E0,2.9992006E1,6.931159E0,2.6041965E0,3.7165048E0,1.6865573E0,4.572741E1,1.2970931E1,4.7196903E0,2.7903054E0,1.7358655E0,1.0554002E1,5.2201527E1,4.760674E1,1.7139902E0,7.3058534E0,4.3190086E1,1.6330416E0,4.1518394E1,5.483771E0,2.789087E0,1.204749E0,2.991058E0,4.395151E0,2.8938527E0,6.977697E0,2.2301767E0,2.6890602E0,5.6810503E0,3.1774237E0,7.4124954E1,3.109466E1,1.1856054E1,2.807394E0,2.7831244E1,1.3917447E0,2.5517624E1,1.7313736E1,4.206666E0,2.1610234E0,2.7635597E1,2.997855E0,4.4492176E1,1.4453259E1],"tree_param":{"num_deleted":"0","num_feature":"14","num_nodes":"273","size_leaf_vector":"0"}},{"base_weights":[8.792013E-3,-3.8784134E-1,7.7972996E-1,-2.52275E-1,-8.926449E-1,1.1826781E0,3.6983114E-1,-3.3273764E-2,-8.0514324E-1,-9.7404087E-1,-1.1965646E-1,1.0293267E0,1.3085361E-1,3.135108E-1,6.8289816E-1,2.2561534E-1,-7.021402E-1,-8.549402E-1,1.22038186E-1,-8.4866446E-1,-1.2747653E-1,2.9684785E-1,-1.1973389E-1,1.1799353E0,9.375949E-1,5.350795E-1,2.7987286E-1,7.471238E-1,1.2802383E-1,1.342468E-1,1.224965E0,-8.3429617E-1,5.327169E-1,-8.9101166E-1,-1.9374658E-1,3.4481293E-1,-7.655172E-2,-9.63234E-1,-1.7545201E-1,6.454978E-1,-1.1103312E-1,5.064656E-1,1.2461326E-1,7.5600487E-1,1.05222516E-1,5.683009E-1,9.673465E-3,-4.426929E-1,3.2011968E-1,4.0763486E-2,8.671451E-1,-6.1175507E-2,5.031019E-2,4.9522233E-1,1.1498433E-2,1.2653475E-1,4.6428423E-2,-8.5580397E-1,5.2169252E-2,1.0247246E0,-6.4399725E-1,-7.360701E-1,-9.8753536E-1,1.3730799E-1,-1.0008855E-1,-1.0974104E-1,6.960357E-1,-9.7550225E-1,1.28880935E-2,1.4773533E-1,-7.3820597E-1,2.4891028E-1,1.0930101E-1,6.1684348E-2,1.33830905E-2,8.368509E-2,-6.5014847E-3,7.107852E-2,4.62614E-2,-4.9700385E-1,-5.9412285E-3,5.077955E-1,2.5719026E-1,9.0282077E-1,-0E0,1.2807685E0,2.1890521E-1,-1.2267222E-1,4.7227487E-1,-7.532275E-1,-1.1770806E0,1.0983298E0,4.1980088E-2,-4.0790956E-3,-9.0724245E-2,-6.0417354E-1,-1.1512302E0,-1.023084E0,-5.616406E-1,-2.8225502E-1,5.850101E-1,-4.597984E-2,6.1898556E-2,2.1833932E-2,9.6266456E-2,-1.0968531E0,-8.469026E-1,3.4800333E-1,-4.5193514E-1,-1.04782596E-1,2.9228017E-2,1.06231764E-1,-1.510835E-1,-3.133253E-1,-6.846058E-2,3.3995166E-1,5.807677E-1,2.3545915E-1,7.186208E-1,9.940956E-1,5.739842E-1,7.7526414E-1,1.4938669E-1,6.605722E-2,1.2137876E-1,-2.2965318E-1,2.4502714E-1,2.868252E-1,7.96036E-1,-8.450096E-1,-3.030116E-2,-3.6158126E-2,-1.1945909E-1,1.1625474E-1,3.6483612E-2,-7.356697E-1,-3.5548475E-1,-4.6188685E-1,-1.2589051E-1,-9.4622177E-1,-1.1876814E0,-8.6985123E-1,8.5172236E-2,4.046306E-2,-8.4533386E-2,6.77101E-1,1.6234217E-2,-1.1274894E-1,-6.498515E-1,-4.2594948E-1,